tree
version=v4
num_class=1
num_tree_per_iteration=1
label_index=0
max_feature_idx=5
objective=regression
feature_names=SquareFeet Bedrooms Bathrooms wage material_grade floors
feature_infos=[1000:2999] [2:5] [1:3] [10.000178321977051:24.999982059970936] [1:3] [1:5]
tree_sizes=2829 2872 2877 2875 2871 2857 2876 2864 2865 2868 2850 2863 2872 2861 2868 2867 2868 2854 2868 2853 2863 2872 2878 2859 2875 2858 2867 2869 2866 2874 2863 2870 2880 2871 2869 2850 2874 2861 2878 2853 2854 2839 2872 2849 2834 2866 2861 2863 2864 2866 2832 2857 2855 2854 2841 2849 2866 2828 2839 2859 2845 2842 2840 2841 2837 2826 2842 2826 2834 2830 2824 2839 2816 2843 2821 2837 2840 2820 2804 2837 2820 2790 2819 2805 2840 2813 2817 2825 2833 2806 2836 2836 2801 2816 2834 2791 2796 2826 2811 2799 2810 2804 2822 2819 2823 2816 2803 2801

Tree=0
num_leaves=31
num_cat=0
split_feature=5 0 4 4 5 0 5 4 5 0 4 0 0 5 5 5 4 0 5 4 4 4 5 5 5 5 4 0 4 5
split_gain=1.49682e+15 7.42524e+14 3.79742e+14 1.4693e+14 1.22383e+14 1.19672e+14 1.16629e+14 8.54761e+13 7.75947e+13 5.05081e+13 4.76937e+13 4.47969e+13 4.03791e+13 3.13463e+13 3.08218e+13 2.78176e+13 2.71315e+13 2.56299e+13 2.41833e+13 2.08295e+13 2.05224e+13 1.8205e+13 1.5258e+13 1.46579e+13 1.41715e+13 1.39823e+13 1.36564e+13 1.34618e+13 1.33291e+13 9.45519e+12
threshold=2.5000000000000004 1997.5000000000002 1.5000000000000002 1.5000000000000002 3.5000000000000004 1975.5000000000002 3.5000000000000004 2.5000000000000004 1.5000000000000002 1447.5000000000002 1.5000000000000002 1454.5000000000002 2400.5000000000005 3.5000000000000004 3.5000000000000004 1.5000000000000002 2.5000000000000004 2456.5000000000005 4.5000000000000009 2.5000000000000004 2.5000000000000004 1.5000000000000002 4.5000000000000009 4.5000000000000009 4.5000000000000009 4.5000000000000009 2.5000000000000004 2518.5000000000005 2.5000000000000004 4.5000000000000009
decision_type=2 2 2 2 2 2 2 2 2 2 2 2 2 2 2 2 2 2 2 2 2 2 2 2 2 2 2 2 2 2
left_child=5 3 4 9 27 15 16 17 20 23 -10 26 25 -11 -13 -1 -4 -8 -14 -16 -7 -17 -9 -2 -19 -6 -5 -3 -12 -15
right_child=1 2 6 11 12 8 7 22 10 13 28 14 18 29 19 21 -18 24 -20 -21 -22 -23 -24 -25 -26 -27 -28 -29 -30 -31
leaf_value=684220.19689251238 702974.81669863989 719791.6430916898 713489.34706431534 698874.57266291755 729927.75773897592 694650.21273081296 723203.17491557973 710445.62427834177 711079.16021615372 709522.60310220229 702172.36554439005 697236.8630956047 744032.52637087763 719280.44104514283 711884.91904455784 696167.52323674888 702398.91044221621 728803.35419423971 757870.49970233359 702420.66415083047 686358.93438962265 688168.40694850986 718974.82602616085 713782.4997664406 739872.66830356116 742903.07740213769 691890.51744957594 730608.88357271277 694262.31241340947 728332.52503579226
leaf_weight=3118 982 588 1094 1413 390 2225 1015 1013 1118 571 1096 1156 626 572 1181 1073 1112 606 637 1145 1123 2110 1087 461 553 444 1387 563 1036 582
leaf_count=3118 982 588 1094 1413 390 2225 1015 1013 1118 571 1096 1156 626 572 1181 1073 1112 606 637 1145 1123 2110 1087 461 553 444 1387 563 1036 582
internal_value=705713 714533 724230 704551 738183 692505 717236 722055 697211 713330 702715 700123 745374 719105 703910 687577 707899 729004 751012 707226 691869 690865 714861 706428 734085 736835 695415 725083 698329 723846
internal_weight=0 19178 9728 9450 3248 12899 6480 4274 6598 3168 3250 6282 2097 1725 3482 6301 2206 2174 1263 2326 3348 3183 2100 1443 1159 834 2800 1151 2132 1154
internal_count=32077 19178 9728 9450 3248 12899 6480 4274 6598 3168 3250 6282 2097 1725 3482 6301 2206 2174 1263 2326 3348 3183 2100 1443 1159 834 2800 1151 2132 1154
is_linear=0
shrinkage=1


Tree=1
num_leaves=31
num_cat=0
split_feature=5 0 4 4 5 0 5 4 5 0 4 5 0 5 5 4 0 0 5 0 4 4 0 5 4 5 5 0 4 4
split_gain=1.35088e+15 6.70128e+14 3.42717e+14 1.32604e+14 1.10451e+14 1.08068e+14 1.05258e+14 7.71422e+13 6.69718e+13 4.55835e+13 4.17601e+13 4.10526e+13 3.64421e+13 2.82901e+13 2.81078e+13 2.44862e+13 2.31466e+13 2.20098e+13 2.18254e+13 1.98272e+13 1.84502e+13 1.82942e+13 1.39778e+13 1.32287e+13 1.29454e+13 1.2619e+13 1.24609e+13 1.21493e+13 1.18021e+13 1.16634e+13
threshold=2.5000000000000004 1997.5000000000002 1.5000000000000002 1.5000000000000002 3.5000000000000004 2031.5000000000002 3.5000000000000004 2.5000000000000004 1.5000000000000002 1447.5000000000002 1.5000000000000002 4.5000000000000009 2400.5000000000005 3.5000000000000004 1.5000000000000002 2.5000000000000004 2463.5000000000005 1495.5000000000002 4.5000000000000009 1535.5000000000002 1.5000000000000002 1.5000000000000002 2471.5000000000005 4.5000000000000009 2.5000000000000004 4.5000000000000009 4.5000000000000009 2518.5000000000005 2.5000000000000004 2.5000000000000004
decision_type=2 2 2 2 2 2 2 2 2 2 2 2 2 2 2 2 2 2 2 2 2 2 2 2 2 2 2 2 2 2
left_child=5 3 4 9 27 14 15 16 20 23 -10 17 25 -11 -1 -4 -8 -5 -14 -13 -7 -16 -9 -2 -19 -6 -18 -3 -21 -12
right_child=1 2 6 11 12 8 7 22 10 13 29 19 18 -15 21 -17 26 24 -20 28 -22 -23 -24 -25 -26 -27 -28 -29 -30 -31
leaf_value=-20246.335852849305 -2601.5235716747902 13374.461079541681 7387.2802752095567 -11899.713754556171 23003.770289470966 -7471.9326182311579 16719.379860737332 4524.2482037429218 5564.8015268640966 3618.8734562407863 -3047.2108292941775 -4211.417354940264 36403.301020554609 17225.818795459028 -8616.8503141790006 -3148.6344369246808 22059.773922422271 -766.4260224055181 49549.374666405027 10966.584877464571 -15590.244304737274 -16394.82623102557 12684.528592632067 7665.7751322649046 -8515.2064539746898 35330.32383002204 32535.706857874124 23650.839759471619 59.017024570727642 -10662.106496025352
leaf_weight=3302 982 588 1094 2033 390 1045 1036 1028 1047 571 1035 1101 626 1154 1144 1112 596 1076 637 498 2119 2229 1072 461 1080 444 542 563 494 978
leaf_count=3302 982 588 1094 2033 390 1045 1036 1028 1047 571 1035 1101 626 1154 1144 1112 596 1076 637 498 2119 2229 1072 461 1080 444 542 563 494 978
internal_value=0 8378.68 17590.6 -1104.26 30846.4 -12547.8 10946.4 15524.6 -7808.32 7236.17 -2534.33 -5310.33 37677.4 12721.7 -16967.1 2076.34 22126.6 -8167.39 43033.6 407.904 -12908.9 -13756.8 8689.88 678.604 -4648 29566.1 27049.2 18401 5534.79 -6746.85
internal_weight=0 19178 9728 9450 3248 12899 6480 4274 6224 3168 3060 6282 2097 1725 6675 2206 2174 4189 1263 2093 3164 3373 2100 1443 2156 834 1138 1151 992 2013
internal_count=32077 19178 9728 9450 3248 12899 6480 4274 6224 3168 3060 6282 2097 1725 6675 2206 2174 4189 1263 2093 3164 3373 2100 1443 2156 834 1138 1151 992 2013
is_linear=0
shrinkage=0.05


Tree=2
num_leaves=31
num_cat=0
split_feature=5 0 4 4 5 0 5 4 5 0 4 5 0 0 5 4 4 0 5 4 4 5 5 5 0 4 5 5 5 4
split_gain=1.21917e+15 6.04929e+14 3.10596e+14 1.18427e+14 9.86091e+13 9.80295e+13 9.65547e+13 6.99079e+13 6.33085e+13 4.03006e+13 3.8902e+13 3.72479e+13 3.49189e+13 2.93312e+13 2.61537e+13 2.27113e+13 2.21548e+13 2.16383e+13 2.1065e+13 1.87583e+13 1.76325e+13 1.37142e+13 1.19389e+13 1.16589e+13 1.10424e+13 1.09056e+13 1.06121e+13 1.05281e+13 9.59892e+12 8.91166e+12
threshold=2.5000000000000004 1990.5000000000002 1.5000000000000002 1.5000000000000002 3.5000000000000004 1975.5000000000002 3.5000000000000004 2.5000000000000004 1.5000000000000002 1447.5000000000002 1.5000000000000002 3.5000000000000004 2320.5000000000005 1412.5000000000002 4.5000000000000009 1.5000000000000002 2.5000000000000004 2622.5000000000005 4.5000000000000009 2.5000000000000004 2.5000000000000004 4.5000000000000009 4.5000000000000009 1.5000000000000002 2542.5000000000005 2.5000000000000004 1.5000000000000002 4.5000000000000009 4.5000000000000009 2.5000000000000004
decision_type=2 2 2 2 2 2 2 2 2 2 2 2 2 2 2 2 2 2 2 2 2 2 2 2 2 2 2 2 2 2
left_child=5 3 4 9 24 15 16 17 20 22 -10 29 28 -13 -11 26 -4 27 -14 -15 -7 -9 -2 -17 -3 -12 -1 -8 -6 -5
right_child=1 2 6 11 12 8 7 21 10 14 25 13 18 19 -16 23 -18 -19 -20 -21 -22 -23 -24 -25 -26 -27 -28 -29 -30 -31
leaf_value=-15804.333529969488 -2471.4474272516136 12935.739354060624 6929.0163008253257 -7328.5129781547294 20372.697014360543 -9908.4730329857302 12929.929764678767 4047.8231284428207 4864.393676456868 7584.2039708026659 -3174.34727022178 -7428.7174193801466 33989.025502452634 5481.3022186242024 20703.850864419721 -21096.650383261665 -3043.3293700522531 27576.294490189986 46217.05981164534 -3259.8890981001105 -17593.832411787622 12111.263540532254 7282.4863800781159 -15847.872162956492 22742.672492565849 -10329.250334603446 -8637.6101049730751 21601.992854653778 32031.785229815981 -13885.219774230305
leaf_weight=996 982 622 1103 1042 332 2225 705 1018 1118 1127 1096 1702 696 1228 573 2122 1125 792 713 1227 1123 1094 461 2110 533 1036 1073 695 377 1031
leaf_count=996 982 622 1103 1042 332 2225 705 1018 1118 1127 1096 1702 696 1228 573 2122 1125 792 713 1227 1123 1094 461 2110 533 1036 1073 695 377 1031
internal_value=0 7959.74 16642.1 -1122.75 29213.8 -11920.4 10342.7 14716.5 -7660.81 6790 -2689.78 -5114.69 35622.7 -2384.54 12006.3 -16380.8 1893.61 20971.4 40176.8 1112.49 -12486.3 8224.62 644.674 -18479.7 17461.4 -6651.12 -12087.6 17235 26572.2 -10589.5
internal_weight=0 19178 9805 9373 3273 12899 6532 4304 6598 3143 3250 6230 2118 4157 1700 6301 2228 2192 1409 2455 3348 2112 1443 4232 1155 2132 2069 1400 709 2073
internal_count=32077 19178 9805 9373 3273 12899 6532 4304 6598 3143 3250 6230 2118 4157 1700 6301 2228 2192 1409 2455 3348 2112 1443 4232 1155 2132 2069 1400 709 2073
is_linear=0
shrinkage=0.05


Tree=3
num_leaves=31
num_cat=0
split_feature=5 0 5 0 5 0 5 0 0 5 0 5 5 5 0 0 0 0 0 3 0 5 0 0 0 3 0 0 3 0
split_gain=1.1003e+15 5.46466e+14 1.66268e+14 9.03472e+13 6.85373e+13 5.20422e+13 4.75044e+13 3.79555e+13 3.71543e+13 3.4816e+13 3.18461e+13 2.97544e+13 1.67971e+13 1.65069e+13 1.64612e+13 8.26072e+12 7.26102e+12 6.65566e+12 6.61891e+12 6.44263e+12 4.99966e+12 4.82589e+12 4.70004e+12 3.32275e+12 3.31608e+12 2.66922e+12 2.66769e+12 2.59024e+12 2.30599e+12 2.25939e+12
threshold=2.5000000000000004 2005.5000000000002 4.5000000000000009 2235.5000000000005 4.5000000000000009 2441.5000000000005 1.5000000000000002 1379.5000000000002 2572.5000000000005 3.5000000000000004 1583.5000000000002 1.5000000000000002 3.5000000000000004 3.5000000000000004 1559.5000000000002 1164.5000000000002 1495.5000000000002 2187.5000000000005 1739.5000000000002 15.382444909455741 2723.5000000000005 3.5000000000000004 2615.5000000000005 1739.5000000000002 2694.5000000000005 18.704169186061524 1814.5000000000002 2636.5000000000005 16.412230378726466 1119.5000000000002
decision_type=2 2 2 2 2 2 2 2 2 2 2 2 2 2 2 2 2 2 2 2 2 2 2 2 2 2 2 2 2 2
left_child=3 4 5 11 7 13 27 21 17 24 15 16 23 -3 -13 -6 -1 -4 -14 -10 -11 29 -8 -9 -7 -19 -12 -5 -22 -2
right_child=1 2 8 6 10 9 22 12 19 20 26 14 18 -15 -16 -17 -18 25 -20 -21 28 -23 -24 -25 -26 -27 -28 -29 -30 -31
leaf_value=-20390.531965762872 -14355.82598650661 2506.5230681083399 16485.073196723137 -12393.045148012381 -4548.6396551699254 8180.2332451966931 -3243.8356575937273 -5980.5227687835695 27078.50837559854 17728.079625177023 8798.2772440548215 -15098.945056332399 -139.38672883304952 10191.442995512904 -8661.5478838627077 2903.6990188453919 -15992.719912805196 20844.574800991981 5703.5317032801349 34260.371869902876 19832.558550065492 -6665.4719854620771 1157.9632816476494 -1863.5913751181761 12407.706341196152 25538.928825965297 13276.416448575314 -9177.9397423755963 25158.571131896973 -9698.8832755271578
leaf_weight=1530 383 1459 626 1291 518 846 1200 1136 496 923 690 1817 1171 1341 2190 1318 2428 725 827 843 337 1162 1226 862 1027 520 642 1217 512 814
leaf_count=1530 383 1459 626 1291 518 846 1200 1136 496 923 690 1817 1171 1341 2190 1318 2428 725 827 843 337 1162 1226 862 1027 520 642 1217 512 814
internal_value=0 7561.76 15944 -11324.4 -936.679 11313.4 -6007.68 -3931.57 25241.3 15251.3 5071.07 -14617.9 -962.635 6187.05 -11580.6 801.133 -17692.7 20690.7 2279.08 31600 20275.3 -8960.77 -1019.35 -4204.35 10498.2 22805.3 10956.7 -10832.9 23044.5 -11188.9
internal_weight=0 19178 9655 12899 9523 6445 4934 6355 3210 3645 3168 7965 3996 2800 4007 1836 3958 1871 1998 1339 1772 2359 2426 1998 1873 1245 1332 2508 849 1197
internal_count=32077 19178 9655 12899 9523 6445 4934 6355 3210 3645 3168 7965 3996 2800 4007 1836 3958 1871 1998 1339 1772 2359 2426 1998 1873 1245 1332 2508 849 1197
is_linear=0
shrinkage=0.05


Tree=4
num_leaves=31
num_cat=0
split_feature=5 0 4 4 4 5 0 5 4 0 4 5 4 0 5 5 5 5 0 5 0 5 5 5 5 0 5 0 0 4
split_gain=9.93024e+14 4.93185e+14 2.76229e+14 1.09363e+14 8.34584e+13 8.28135e+13 8.15573e+13 4.54962e+13 4.36254e+13 3.56312e+13 3.35283e+13 3.19138e+13 2.89114e+13 2.84762e+13 2.2983e+13 2.28173e+13 2.13357e+13 2.09481e+13 1.73577e+13 1.39931e+13 1.32316e+13 1.30938e+13 1.24801e+13 1.17609e+13 1.13071e+13 1.06583e+13 1.01888e+13 9.54122e+12 9.08275e+12 8.91784e+12
threshold=2.5000000000000004 2005.5000000000002 1.5000000000000002 1.5000000000000002 2.5000000000000004 3.5000000000000004 2203.5000000000005 3.5000000000000004 1.5000000000000002 1486.5000000000002 2.5000000000000004 4.5000000000000009 1.5000000000000002 2579.5000000000005 1.5000000000000002 4.5000000000000009 3.5000000000000004 1.5000000000000002 2456.5000000000005 4.5000000000000009 1511.5000000000002 1.5000000000000002 1.5000000000000002 4.5000000000000009 4.5000000000000009 1412.5000000000002 4.5000000000000009 1395.5000000000002 2518.5000000000005 2.5000000000000004
decision_type=2 2 2 2 2 2 2 2 2 2 2 2 2 2 2 2 2 2 2 2 2 2 2 2 2 2 2 2 2 2
left_child=6 3 5 9 7 28 12 -4 14 23 15 -6 22 24 -8 25 -11 -10 -9 -15 -12 -14 -1 -2 -7 -5 -20 -17 -3 -19
right_child=1 2 4 10 11 13 8 18 17 16 20 -13 21 19 -16 27 -18 29 26 -21 -22 -23 -24 -25 -26 -27 -28 -29 -30 -31
leaf_value=-13242.124563561983 -1720.7431124482384 11917.051495712753 6426.0574173408968 -8337.56355863928 -158.29457935109497 22929.264881593925 -5182.076499751357 14166.705452767223 -12961.338018008799 3707.9055424826993 -11637.857947920282 10429.322166390255 -18624.978358897355 33447.409866081027 6384.3370868391467 -989.33873392251826 15893.502740579772 -1573.345995521101 18681.635897051619 46030.045639474054 -5146.0719250501033 -13605.880663629154 -6278.5113298975266 7542.5928745397687 32649.106477899171 -1144.9863773300929 28067.490727689172 8725.4928349465317 20817.251552786416 -8904.6827602058693
leaf_weight=1249 1057 584 1080 866 2114 574 854 999 1746 537 1554 1073 2617 436 864 416 1085 858 606 448 1586 2581 1327 507 625 1271 553 644 563 803
leaf_count=1249 1057 584 1080 866 2114 574 854 999 1746 537 1554 1073 2617 436 864 416 1085 858 606 448 1586 2581 1327 507 625 1271 553 644 563 803
internal_value=0 7183.67 15146.8 -889.845 9150.37 27074.7 -10758.2 14803.9 -5861.52 6666.94 -4689.1 3406.35 -13986.3 33015.7 634.793 -1084.75 11859.2 -9137.33 18996.7 39824.1 -8358.89 -16132.8 -9654.89 1282.14 27995.9 -4059.71 23160 4912.88 16285.7 -5117.63
internal_weight=0 19178 9655 9523 6425 3230 12899 3238 5125 3186 6337 3187 7774 2083 1718 3197 1622 3407 2158 884 3140 5198 2576 1564 1199 2137 1159 1060 1147 1661
internal_count=32077 19178 9655 9523 6425 3230 12899 3238 5125 3186 6337 3187 7774 2083 1718 3197 1622 3407 2158 884 3140 5198 2576 1564 1199 2137 1159 1060 1147 1661
is_linear=0
shrinkage=0.05


Tree=5
num_leaves=31
num_cat=0
split_feature=5 4 5 4 4 5 4 5 5 4 5 5 5 4 3 3 3 1 3 3 1 3 3 3 1 2 1 3 3 3
split_gain=9.05381e+14 2.66782e+14 1.76202e+14 1.15456e+14 7.81255e+13 3.82707e+13 3.49747e+13 3.38201e+13 2.39665e+13 2.15539e+13 1.89039e+13 1.3249e+13 1.05746e+13 6.33082e+12 5.02783e+12 3.69362e+12 2.62256e+12 2.39593e+12 2.32197e+12 2.29238e+12 2.02673e+12 1.89394e+12 1.69434e+12 1.63249e+12 1.54358e+12 1.51837e+12 1.46024e+12 1.37812e+12 1.3485e+12 1.13322e+12
threshold=3.5000000000000004 1.5000000000000002 1.5000000000000002 1.5000000000000002 2.5000000000000004 4.5000000000000009 2.5000000000000004 2.5000000000000004 4.5000000000000009 1.5000000000000002 2.5000000000000004 4.5000000000000009 2.5000000000000004 2.5000000000000004 17.597167289679046 21.944636874428813 12.518509038635282 3.5000000000000004 14.990612320422493 16.597892350348573 3.5000000000000004 12.887120811514118 24.354605310451117 18.237582856822971 2.5000000000000004 1.5000000000000002 3.5000000000000004 24.176787355612884 15.117813159687026 19.546283093041858
decision_type=2 2 2 2 2 2 2 2 2 2 2 2 2 2 2 2 2 2 2 2 2 2 2 2 2 2 2 2 2 2
left_child=2 5 9 7 8 15 10 23 19 -1 -5 29 -8 -11 24 20 -13 27 -10 -3 -2 -9 -19 -4 -7 -20 -23 -16 -12 -6
right_child=1 4 3 6 11 14 12 21 18 13 28 16 -14 -15 17 -17 -18 22 25 -21 -22 26 -24 -25 -26 -27 -28 -29 -30 -31
leaf_value=-9489.3807847614153 13037.297513131038 4491.3327132434379 -2397.4015606948915 -6934.9213890223346 -3320.7093508110579 19755.425413757792 -12581.442860220488 4408.7653040436262 11506.888046869 -13737.505470324366 -1999.0354968496472 -727.68101726193152 -7583.1655596561241 -17604.557774444842 24711.145753309465 19974.747421320135 4021.2232035333982 29598.36157871563 12792.732100553207 7782.7345607881034 16558.228833391135 6858.4857645628472 40328.916279296878 334.79380879533403 24153.697098216373 16228.257525234811 9713.2449672655912 32759.953460286459 601.93957919134607 -891.60653403174535
leaf_weight=2136 810 943 1235 2183 1298 262 2081 386 712 2140 780 349 2153 2094 468 440 1741 458 498 1205 825 906 40 981 836 908 886 60 1380 762
leaf_count=2136 810 943 1235 2183 1298 262 2081 386 712 2140 780 349 2153 2094 468 440 1741 458 498 1205 825 906 40 981 836 908 886 60 1380 762
internal_value=0 10443.7 -6774.13 -3429.72 5307.72 20737.7 -6806.11 3160.93 10059.2 -13584.2 -3653.58 423.447 -10039.8 -15650 25455.8 15908.3 3228.22 27972.3 13833.3 6337.77 14813.9 7585.63 30460.3 -1187.89 23104.2 15011.4 8269.93 25625.8 -337.301 -2422.18
internal_weight=0 12615 19341 12971 8416 4199 8577 4394 4266 6370 4343 4150 4234 4234 2124 2075 2090 1026 2118 2148 1635 2178 498 2216 1098 1406 1792 528 2160 2060
internal_count=31956 12615 19341 12971 8416 4199 8577 4394 4266 6370 4343 4150 4234 4234 2124 2075 2090 1026 2118 2148 1635 2178 498 2216 1098 1406 1792 528 2160 2060
is_linear=0
shrinkage=0.05


Tree=6
num_leaves=31
num_cat=0
split_feature=5 0 0 5 0 5 5 0 0 5 5 5 5 0 3 0 5 0 0 0 5 0 0 3 0 0 0 0 0 3
split_gain=8.17106e+14 3.58554e+14 1.71102e+14 1.10155e+14 6.38049e+13 5.82253e+13 3.60755e+13 3.45696e+13 3.28237e+13 2.75464e+13 2.49665e+13 1.22816e+13 1.07444e+13 9.97868e+12 6.93294e+12 6.83594e+12 6.08129e+12 5.97808e+12 5.49004e+12 4.84161e+12 4.80793e+12 3.42047e+12 3.16921e+12 2.92926e+12 2.90364e+12 2.84615e+12 2.80276e+12 2.67958e+12 2.56373e+12 2.37894e+12
threshold=3.5000000000000004 1894.5000000000002 2195.5000000000005 1.5000000000000002 2463.5000000000005 1.5000000000000002 2.5000000000000004 1567.5000000000002 1355.5000000000002 4.5000000000000009 4.5000000000000009 2.5000000000000004 4.5000000000000009 2526.5000000000005 14.821668608976102 1591.5000000000002 2.5000000000000004 2187.5000000000005 2572.5000000000005 2809.5000000000005 4.5000000000000009 1208.5000000000002 1639.5000000000002 19.121899384512368 2629.5000000000005 2171.5000000000005 1755.5000000000002 1137.5000000000002 2716.5000000000005 16.363347537586055
decision_type=2 2 2 2 2 2 2 2 2 2 2 2 2 2 2 2 2 2 2 2 2 2 2 2 2 2 2 2 2 2
left_child=2 8 5 28 10 15 18 16 20 24 25 -9 23 -8 -11 -1 -7 -12 -5 -16 -2 -18 -14 -10 -6 -3 -13 -22 -4 -26
right_child=1 4 3 6 9 7 13 11 12 14 17 26 22 -15 19 -17 21 -19 -20 -21 27 -23 -24 -25 29 -27 -28 -29 -30 -31
leaf_value=-17592.643888503113 -6783.066765889449 6455.0680499167465 -10386.546185583837 -3291.299821488622 14899.715990925688 -13378.705521299478 3817.6108186230649 -7379.6669894895786 -993.29684906974444 22380.157667038206 14114.304344553006 -4777.658100222412 4265.0918445040952 10025.559740236313 26578.106856745741 -13350.273453542826 -12165.719517996253 19727.030471520629 1320.7264929529611 33369.531097267478 -5223.9817318629293 -7634.7358839397784 8634.5455398771774 3184.1754501197915 16615.238506262082 10484.921969925099 -683.84062211641992 -90.918677199030498 -7061.8450778117303 21205.82547208207
leaf_weight=1817 1076 863 1678 1194 559 1839 1099 2043 1024 573 1002 591 873 1575 694 1989 656 901 1404 422 412 1141 791 711 485 890 1429 664 886 675
leaf_count=1817 1076 863 1678 1194 559 1839 1099 2043 1024 573 1002 591 873 1575 694 1989 656 901 1404 422 412 1141 791 711 485 890 1429 664 886 675
internal_value=0 9921.53 -6435.42 -736.999 17394 -10316.6 3397.25 -7815.67 412.346 22315.8 12806 -4646.19 3471.66 7474.13 26850.8 -15375.6 -11357.4 16771.7 -798.888 29146.2 -4419.72 -9288.78 6342.16 718.624 17860 8501.03 -1881.59 -2056.37 -9237.68 19286.5
internal_weight=0 12615 19341 7836 7064 11505 5272 7699 5551 3408 3656 4063 3399 2674 1689 3806 3636 1903 2598 1116 2152 1797 1664 1735 1719 1753 2020 1076 2564 1160
internal_count=31956 12615 19341 7836 7064 11505 5272 7699 5551 3408 3656 4063 3399 2674 1689 3806 3636 1903 2598 1116 2152 1797 1664 1735 1719 1753 2020 1076 2564 1160
is_linear=0
shrinkage=0.05


Tree=7
num_leaves=31
num_cat=0
split_feature=5 0 4 0 5 4 4 4 5 4 0 5 0 4 0 4 0 0 5 4 0 5 5 5 0 4 4 5 5 5
split_gain=7.37438e+14 3.23595e+14 1.96804e+14 1.5442e+14 9.9415e+13 7.06058e+13 5.70946e+13 5.63767e+13 5.25483e+13 4.09804e+13 3.10075e+13 1.95759e+13 1.94711e+13 1.93212e+13 1.7717e+13 1.65073e+13 1.62696e+13 1.50685e+13 1.38418e+13 1.19805e+13 1.18827e+13 1.14167e+13 9.0395e+12 8.79189e+12 8.33246e+12 8.02134e+12 8.00504e+12 6.7672e+12 6.65706e+12 5.83709e+12
threshold=3.5000000000000004 1894.5000000000002 1.5000000000000002 2195.5000000000005 1.5000000000000002 1.5000000000000002 1.5000000000000002 2.5000000000000004 1.5000000000000002 1.5000000000000002 2400.5000000000005 2.5000000000000004 1355.5000000000002 2.5000000000000004 1599.5000000000002 2.5000000000000004 2542.5000000000005 1567.5000000000002 4.5000000000000009 1.5000000000000002 2434.5000000000005 2.5000000000000004 4.5000000000000009 4.5000000000000009 1412.5000000000002 2.5000000000000004 1.5000000000000002 2.5000000000000004 4.5000000000000009 4.5000000000000009
decision_type=2 2 2 2 2 2 2 2 2 2 2 2 2 2 2 2 2 2 2 2 2 2 2 2 2 2 2 2 2 2
left_child=3 6 10 8 19 11 12 16 26 14 22 -6 -2 21 -10 24 23 -11 -12 -5 -9 -7 -3 -4 -8 -19 -1 -16 -18 -14
right_child=1 2 7 4 5 13 15 20 9 17 18 -13 29 -15 27 -17 28 25 -20 -21 -22 -23 -24 -25 -26 -27 -28 -29 -30 -31
leaf_value=-11364.566320637252 1064.7178405675634 17264.081437941422 8498.9909877943919 -3994.1256766353381 6106.1565032734343 -1279.5789807873114 -3585.697883732048 1427.2843601743937 -6442.8919077823339 -12926.433938909344 28333.767704107824 16628.672045153602 8166.290690488654 -4705.3251398975326 -1747.7609322816313 -6551.4819442113767 17040.925795879622 -4740.0494542660554 38779.175512657464 -11218.763381834375 8598.4027865593416 6677.9865539785524 26421.39512633214 16377.277205928949 3136.7671831210687 -10217.089105600066 -16228.583638505106 5449.6037690164158 25278.489503777619 15329.671496570914
leaf_weight=1269 709 508 686 867 883 896 835 1142 1319 2399 624 885 590 1701 668 1839 519 1342 645 1697 1169 907 574 732 1029 1332 2537 639 465 549
leaf_count=1269 709 508 686 867 883 896 835 1142 1319 2399 624 885 590 1701 668 1839 519 1342 645 1697 1169 907 574 732 1029 1332 2537 639 465 549
internal_value=0 9425.45 16524.3 -6113.65 -700.149 3227.39 391.729 10629.9 -9800.76 -7424.89 28340.7 11373.4 7569.8 -882.799 -2354.68 -3190.52 15993.8 -10049.4 33642.9 -8775.8 5054.73 2723.48 22122 12565.9 125.362 -7468.33 -14606.8 1771.07 20933.7 11619.1
internal_weight=0 12615 7064 19341 7836 5272 5551 4713 11505 7699 2351 1768 1848 3504 2626 3703 2402 5073 1269 2564 2311 1803 1082 1418 1864 2674 3806 1307 984 1139
internal_count=31956 12615 7064 19341 7836 5272 5551 4713 11505 7699 2351 1768 1848 3504 2626 3703 2402 5073 1269 2564 2311 1803 1082 1418 1864 2674 3806 1307 984 1139
is_linear=0
shrinkage=0.05


Tree=8
num_leaves=31
num_cat=0
split_feature=5 0 0 5 0 5 5 0 5 5 0 5 0 5 0 3 0 0 0 5 0 0 0 0 3 0 3 0 0 0
split_gain=6.65538e+14 2.9212e+14 1.40108e+14 1.07142e+14 5.33839e+13 3.44351e+13 3.1349e+13 2.66951e+13 2.30589e+13 2.09711e+13 2.01165e+13 1.05456e+13 9.61658e+12 9.13349e+12 9.10096e+12 6.27857e+12 6.11144e+12 5.42254e+12 4.39117e+12 4.33578e+12 4.22555e+12 3.35438e+12 2.64443e+12 2.583e+12 2.57175e+12 2.57058e+12 2.52757e+12 2.4156e+12 2.40093e+12 2.1551e+12
threshold=3.5000000000000004 1885.5000000000002 1911.5000000000002 1.5000000000000002 2463.5000000000005 2.5000000000000004 2.5000000000000004 1355.5000000000002 4.5000000000000009 4.5000000000000009 2434.5000000000005 1.5000000000000002 2526.5000000000005 4.5000000000000009 1338.5000000000002 14.821668608976102 1462.5000000000002 2187.5000000000005 2731.5000000000005 4.5000000000000009 2495.5000000000005 1403.5000000000002 1639.5000000000002 1706.5000000000002 16.363347537586055 2171.5000000000005 19.121899384512368 1137.5000000000002 2709.5000000000005 2945.5000000000005
decision_type=2 2 2 2 2 2 2 2 2 2 2 2 2 2 2 2 2 2 2 2 2 2 2 2 2 2 2 2 2 2
left_child=2 7 6 20 9 12 11 19 24 25 -7 21 -5 26 -8 -10 -13 -11 -17 -2 -4 -1 -15 -16 -6 -3 -9 -21 -12 -26
right_child=1 4 3 5 8 10 14 13 15 17 28 16 -14 22 23 18 -18 -19 -20 27 -22 -23 -24 -25 29 -27 -28 -29 -30 -31
leaf_value=-16688.073475395297 -6290.0569890061279 5673.694574271547 -10725.984143307594 -4291.4258538817621 13805.178542785645 1130.0292158625368 -9922.3922976609792 -1064.4745979301529 20054.762277181737 12620.120638468108 6794.4230683277747 -12799.087515757576 985.71142147286446 3879.5870945916281 -5512.5989345615199 23345.9379134583 -8276.1102652128611 17933.596815599954 29618.729383544924 -4808.9874014622956 -7241.6482192731855 -13244.448780246312 7906.3379825088405 -1612.3070605017663 16981.019384971096 9474.9522366641613 2846.5735841764745 64.684345659003199 10375.678461015101 24973.480126428094
leaf_weight=1255 1076 889 1860 1930 720 1714 1061 1010 573 1028 915 1473 1562 873 1180 556 1515 901 560 412 1635 1620 765 663 906 890 699 664 958 93
leaf_count=1255 1076 889 1860 1930 720 1714 1061 1010 573 1028 915 1473 1562 873 1180 556 1515 901 560 412 1635 1620 765 663 906 890 699 664 958 93
internal_value=0 8954.18 -5807.97 -1933 15642.7 1603.46 -10481.6 298.856 20160 11490.9 5044.23 -12585.9 -1930.92 3092.28 -6233.29 24309.2 -10505.8 15101.9 26493.6 -4045.75 -9095.97 -14747.7 5760.21 -4109.51 16083.2 7575.39 535.188 -1801.44 8626.16 17725.1
internal_weight=0 12615 19341 10574 7116 7079 8767 5499 3408 3708 3587 5863 3492 3347 2904 1689 2988 1929 1116 2152 3495 2875 1638 1843 1719 1779 1709 1076 1873 999
internal_count=31956 12615 19341 10574 7116 7079 8767 5499 3408 3708 3587 5863 3492 3347 2904 1689 2988 1929 1116 2152 3495 2875 1638 1843 1719 1779 1709 1076 1873 999
is_linear=0
shrinkage=0.05


Tree=9
num_leaves=31
num_cat=0
split_feature=0 4 4 4 0 4 0 0 0 0 0 0 0 0 3 0 0 3 0 3 1 0 3 3 3 3 0 1 1 0
split_gain=3.63328e+14 2.38537e+14 7.24074e+13 7.19835e+13 4.02201e+13 2.28209e+13 2.27841e+13 1.99892e+13 1.28582e+13 1.16807e+13 6.0469e+12 5.56403e+12 5.28787e+12 4.68122e+12 3.98412e+12 3.74994e+12 2.72515e+12 2.72228e+12 2.64005e+12 2.0463e+12 2.00132e+12 1.97729e+12 1.85226e+12 1.73157e+12 1.61997e+12 1.45452e+12 1.42341e+12 1.40202e+12 1.36745e+12 1.31228e+12
threshold=1894.5000000000002 1.5000000000000002 1.5000000000000002 2.5000000000000004 2448.5000000000005 2.5000000000000004 1355.5000000000002 2434.5000000000005 2408.5000000000005 1251.5000000000002 1503.5000000000002 2731.5000000000005 1689.5000000000002 2709.5000000000005 15.382444909455741 2171.5000000000005 2837.5000000000005 19.121899384512368 1631.5000000000002 21.715971396134531 3.5000000000000004 1119.5000000000002 18.527786031355998 11.146881057139842 14.821668608976102 20.5259369525027 2636.5000000000005 2.5000000000000004 3.5000000000000004 2140.5000000000005
decision_type=2 2 2 2 2 2 2 2 2 2 2 2 2 2 2 2 2 2 2 2 2 2 2 2 2 2 2 2 2 2
left_child=2 4 6 7 15 9 21 24 25 -4 -7 20 17 -9 -13 19 -10 28 -11 -2 26 -1 27 -14 -3 -5 -6 -17 -8 -26
right_child=1 3 5 8 11 10 12 13 16 18 -12 14 23 -15 -16 22 -18 -19 -20 -21 -22 -23 -24 -25 29 -27 -28 -29 -30 -31
leaf_value=-7639.4827950594045 6056.162737769755 -239.23391334742146 -10123.886086212869 -6551.3334443697322 11721.319190124967 -12591.446614751438 -3215.3065920410158 5307.2042414561756 -2002.2651178339031 -5716.6512961017652 -8963.0946854951835 15728.092792503492 -2742.9320619281971 9183.8052082403319 21250.928859753403 5470.0190484439627 1323.5203697518373 2431.2820055944089 -2919.8488441667782 10418.581940694115 16759.628367624518 -4144.3242483696004 12680.239501382152 5077.4504287083328 928.23773108310388 -4048.360852200808 16206.661363474528 10235.533789139517 393.80570465938979 3523.7994193627674
leaf_weight=604 1170 915 1290 1909 536 2593 550 1530 2230 2026 2061 509 76 1586 911 204 851 762 1446 349 781 1226 620 1031 915 834 264 634 502 1041
leaf_count=604 1170 915 1290 1909 536 2593 550 1530 2230 2026 2061 509 76 1586 911 204 851 762 1446 349 781 1226 620 1031 915 834 264 634 502 1041
internal_value=0 4776.38 -5955.62 657.242 12914.8 -8494.73 -923.362 4507.14 -3300.41 -6061.29 -10984.6 16999.6 1817.29 7280.34 19271.3 8797.03 -1083.65 155.407 -4551.85 7058.46 14959.2 -5297.92 10608.3 4540.55 1497.29 -5790.31 13201.5 9075.43 -1493.09 2309.62
internal_weight=0 17789 14167 11811 5978 9416 4751 5987 5824 4762 4654 3001 2921 3116 1420 2977 3081 1814 3472 1519 1581 1830 1458 1107 2871 2743 800 838 1052 1956
internal_count=31956 17789 14167 11811 5978 9416 4751 5987 5824 4762 4654 3001 2921 3116 1420 2977 3081 1814 3472 1519 1581 1830 1458 1107 2871 2743 800 838 1052 1956
is_linear=0
shrinkage=0.05


Tree=10
num_leaves=31
num_cat=0
split_feature=0 4 4 4 0 0 4 0 0 0 0 0 0 3 3 3 1 0 0 1 3 0 0 0 0 3 0 0 3 1
split_gain=3.18089e+14 2.23445e+14 6.86063e+13 5.5963e+13 3.68998e+13 2.26257e+13 1.87302e+13 1.35157e+13 1.2355e+13 9.02783e+12 5.32311e+12 5.16004e+12 3.87004e+12 3.73557e+12 3.39967e+12 3.30551e+12 2.6974e+12 2.149e+12 2.06985e+12 1.93203e+12 1.86061e+12 1.7932e+12 1.68036e+12 1.66109e+12 1.57558e+12 1.57413e+12 1.49179e+12 1.471e+12 1.30019e+12 1.27899e+12
threshold=1831.5000000000002 1.5000000000000002 2.5000000000000004 1.5000000000000002 2425.5000000000005 2417.5000000000005 2.5000000000000004 1379.5000000000002 2463.5000000000005 1251.5000000000002 2675.5000000000005 1379.5000000000002 2709.5000000000005 16.02691194080754 20.175811140817114 18.64784348712692 3.5000000000000004 2079.5000000000005 2823.5000000000005 3.5000000000000004 18.18253091310245 1119.5000000000002 1689.5000000000002 2938.5000000000005 1631.5000000000002 23.080312820745785 2195.5000000000005 2227.5000000000005 11.565666814096344 3.5000000000000004
decision_type=2 2 2 2 2 2 2 2 2 2 2 2 2 2 2 2 2 2 2 2 2 2 2 2 2 2 2 2 2 2
left_child=3 4 5 7 15 17 9 21 27 -5 19 -8 -7 -12 22 16 26 -3 -10 25 23 -1 29 -14 -11 -6 -2 -4 -24 -9
right_child=1 2 8 6 10 12 11 14 18 24 13 -13 20 -15 -16 -17 -18 -19 -20 -21 -22 -23 28 -25 -26 -27 -28 -29 -30 -31
leaf_value=-6596.2096680621726 3182.8281472607318 -626.25940575658274 -6240.0197737136241 -9561.2709132687141 10584.49593326285 5172.0166233157088 -12586.509313986799 -2934.2651911233693 -1933.6337071229609 -5431.8119995928191 14665.533438436696 -9123.4315501625733 5917.1940068692466 19403.621816403618 3895.771087303754 9932.5355790758258 8520.9025508262239 2032.4180601459866 952.3541611417412 15242.06564790966 10555.544442059505 -3391.1887894513457 -3353.6425085521878 11132.498718508326 -3087.3111696076157 17851.030099092372 7373.6443451929808 -4097.7310150604853 3493.5237182617188 511.3780103236607
leaf_weight=637 580 1302 2186 1299 605 1577 1946 553 1931 2032 692 2405 667 1043 773 1309 950 1826 916 675 717 1386 84 198 1107 85 335 1265 397 525
leaf_count=637 580 1302 2186 1299 605 1577 1946 553 1931 2032 692 2405 667 1043 773 1309 950 1826 916 675 717 1386 84 198 1107 85 335 1265 397 525
internal_value=0 4087.93 245.181 -6044.57 11796.1 3940.1 -8341.15 -1409.76 -3443.28 -6055.7 15676.1 -10672.3 6924.85 17513.8 1184.6 8006.54 6654.73 925.769 -1005.09 13340.2 8672.14 -4400.38 -159.687 7110.99 -4605 11479.6 4717.17 -5454.74 2297.76 -1256.19
internal_weight=0 18859 12585 13144 6274 6287 8789 4355 6298 4438 3100 4351 3159 1735 2332 3174 1865 3128 2847 1365 1582 2023 1559 865 3139 690 915 3451 481 1078
internal_count=32003 18859 12585 13144 6274 6287 8789 4355 6298 4438 3100 4351 3159 1735 2332 3174 1865 3128 2847 1365 1582 2023 1559 865 3139 690 915 3451 481 1078
is_linear=0
shrinkage=0.05


Tree=11
num_leaves=31
num_cat=0
split_feature=5 0 4 5 4 0 0 4 5 4 0 4 4 0 5 4 4 4 5 4 0 0 4 0 5 5 4 5 0 0
split_gain=5.85532e+14 2.26028e+14 1.23715e+14 1.1817e+14 6.73292e+13 6.57928e+13 4.12198e+13 3.50772e+13 3.2643e+13 3.17843e+13 2.59721e+13 2.24565e+13 2.20765e+13 2.16311e+13 1.5598e+13 1.28244e+13 9.90721e+12 9.87576e+12 9.14345e+12 8.77898e+12 8.59737e+12 8.16047e+12 7.6121e+12 7.38778e+12 6.99367e+12 6.5945e+12 6.308e+12 5.68951e+12 4.65394e+12 4.06438e+12
threshold=3.5000000000000004 2164.5000000000005 1.5000000000000002 2.5000000000000004 1.5000000000000002 2259.5000000000005 1838.5000000000002 2.5000000000000004 1.5000000000000002 1.5000000000000002 1591.5000000000002 1.5000000000000002 1.5000000000000002 1575.5000000000002 4.5000000000000009 2.5000000000000004 2.5000000000000004 2.5000000000000004 4.5000000000000009 2.5000000000000004 1730.5000000000002 2675.5000000000005 2.5000000000000004 1648.5000000000002 1.5000000000000002 4.5000000000000009 2.5000000000000004 4.5000000000000009 2495.5000000000005 1313.5000000000002
decision_type=2 2 2 2 2 2 2 2 2 2 2 2 2 2 2 2 2 2 2 2 2 2 2 2 2 2 2 2 2 2
left_child=3 4 14 6 10 12 19 18 16 -7 29 28 20 22 -3 -15 -8 -11 -4 24 -5 -16 -6 -14 -1 -12 -13 -9 -10 -2
right_child=1 2 7 5 13 9 8 27 11 17 25 26 23 15 21 -17 -18 -19 -20 -21 -22 -23 -24 -25 -26 -27 -28 -29 -30 -31
leaf_value=-12521.655591730763 1709.236804873769 22306.407381574274 12257.252092170716 -2078.3785601285235 -1317.4169697473783 14386.007305779973 -7389.5364063217021 2818.8126936612944 95.250173441918349 6255.4973392370875 11018.915961995444 -2909.7608649845679 -9220.5260308610996 6025.9871185476941 27968.830381992484 -1025.709583124192 -12812.70329328813 -1511.6751887561925 19423.189422336 -14566.75762578791 6050.6286368408209 37778.825252325281 -6962.8377684819461 -3965.1741611205371 -8099.0717788814791 18438.220341384531 -7959.3150833195023 8554.1641406290782 6167.346886696123 7410.9266595530562
leaf_weight=1743 656 836 904 796 1213 827 2492 834 728 816 600 1244 1345 1292 540 1287 1272 821 877 1760 550 349 1176 1330 1835 598 1230 898 557 597
leaf_count=1743 656 836 904 796 1213 827 2492 834 728 816 600 1244 1345 1292 540 1287 1272 821 877 1760 550 349 1176 1330 1835 598 1230 898 557 597
internal_value=0 8291.5 16243.5 -5540.34 2677.2 -37.1942 -8315.23 10858.9 -5930.83 6396.36 9458.58 -2635.05 -3979.57 -668.445 27209.4 2506.97 -9222.23 2360.05 15785.9 -11675.6 1243.28 31820 -4096.41 -6607.58 -10253.5 14722.4 -5420.25 5792.45 2727.28 4425.84
internal_weight=0 12657 5238 19346 7419 6485 12861 3513 7523 2464 2451 3759 4021 4968 1725 2579 3764 1637 1781 5338 1346 889 2389 2675 3578 1198 2474 1732 1285 1253
internal_count=32003 12657 5238 19346 7419 6485 12861 3513 7523 2464 2451 3759 4021 4968 1725 2579 3764 1637 1781 5338 1346 889 2389 2675 3578 1198 2474 1732 1285 1253
is_linear=0
shrinkage=0.05


Tree=12
num_leaves=31
num_cat=0
split_feature=5 0 4 5 4 0 0 4 5 4 0 4 4 0 5 4 4 4 5 0 4 0 4 0 5 4 5 0 5 0
split_gain=5.28443e+14 2.0399e+14 1.11653e+14 1.06649e+14 6.07646e+13 5.9378e+13 3.72035e+13 3.16571e+13 2.95015e+13 2.86853e+13 2.36872e+13 2.05195e+13 1.9924e+13 1.95221e+13 1.40772e+13 1.1574e+13 9.08585e+12 8.91287e+12 8.25196e+12 7.79675e+12 7.58613e+12 7.36482e+12 6.86992e+12 6.66747e+12 6.10166e+12 5.82152e+12 5.13478e+12 4.95007e+12 4.51314e+12 4.35144e+12
threshold=3.5000000000000004 2164.5000000000005 1.5000000000000002 2.5000000000000004 1.5000000000000002 2259.5000000000005 1822.5000000000002 2.5000000000000004 1.5000000000000002 1.5000000000000002 1672.5000000000002 1.5000000000000002 1.5000000000000002 1575.5000000000002 4.5000000000000009 2.5000000000000004 1.5000000000000002 2.5000000000000004 4.5000000000000009 1797.5000000000002 2.5000000000000004 2675.5000000000005 2.5000000000000004 1648.5000000000002 1.5000000000000002 2.5000000000000004 4.5000000000000009 1322.5000000000002 4.5000000000000009 2495.5000000000005
decision_type=2 2 2 2 2 2 2 2 2 2 2 2 2 2 2 2 2 2 2 2 2 2 2 2 2 2 2 2 2 2
left_child=3 4 14 6 10 12 20 18 16 -7 27 29 19 22 -3 -15 -8 -11 -4 -5 24 -16 -6 -14 -1 -13 -9 -2 -12 -10
right_child=1 2 7 5 13 9 8 26 11 17 28 25 23 15 21 -17 -18 -19 -20 -21 -22 -23 -24 -25 -26 -27 -28 -29 -30 -31
leaf_value=-11954.205480162322 1725.2653166961672 21191.087258166444 11644.389470590744 -1601.739250070013 -1251.5460492416346 13666.707017518936 -5337.5803671245485 2677.8720639319158 26.640990779180818 5942.7224061181732 11377.55947740211 -2816.0037036479421 -8759.4997753496409 5724.6877700923769 26570.38888075087 -974.42406829027777 -10511.079644047868 -1436.0914189695295 18452.029912534952 6384.8803944341671 -13862.668552394261 35889.884155903033 -6614.6958238640618 -3766.9154725228218 -7777.5008118853139 -7631.0343933044442 8126.4559001047528 7629.0304590258593 18005.234711254685 5858.9795254376895
leaf_weight=1705 680 836 904 877 1213 827 1274 834 751 816 502 1261 1345 1292 540 1287 2542 821 877 469 1726 349 1176 1330 1795 1250 898 743 526 557
leaf_count=1705 680 836 904 877 1213 827 1274 834 751 816 502 1261 1345 1292 540 1287 2542 821 877 469 1726 349 1176 1330 1795 1250 898 743 526 557
internal_value=0 7876.92 15431.3 -5263.32 2543.34 -35.3345 -7899.47 10315.9 -5674.6 6076.54 8985.65 -2567.77 -3780.59 -635.023 25848.9 2381.63 -8783.87 2242.05 14996.6 1181.12 -11149.9 30229 -3891.59 -6277.21 -9812.15 -5212.97 5502.83 4807.84 14768.8 2510.29
internal_weight=0 12657 5238 19346 7419 6485 12861 3513 7635 2464 2451 3819 4021 4968 1725 2579 3816 1637 1781 1346 5226 889 2389 2675 3500 2511 1732 1423 1028 1308
internal_count=32003 12657 5238 19346 7419 6485 12861 3513 7635 2464 2451 3819 4021 4968 1725 2579 3816 1637 1781 1346 5226 889 2389 2675 3500 2511 1732 1423 1028 1308
is_linear=0
shrinkage=0.05


Tree=13
num_leaves=31
num_cat=0
split_feature=5 0 5 0 0 0 5 0 5 5 5 0 0 5 3 0 0 0 5 0 0 0 0 0 0 3 3 3 3 0
split_gain=4.7692e+14 1.85334e+14 9.62504e+13 5.35887e+13 3.61025e+13 3.43119e+13 2.02188e+13 1.66955e+13 1.62946e+13 1.39203e+13 1.30379e+13 1.14612e+13 7.658e+12 6.96009e+12 5.72782e+12 3.87025e+12 3.13345e+12 3.05266e+12 2.84526e+12 2.72755e+12 2.54765e+12 2.46118e+12 2.23756e+12 2.06325e+12 1.93014e+12 1.85478e+12 1.84333e+12 1.70505e+12 1.686e+12 1.6544e+12
threshold=3.5000000000000004 1894.5000000000002 2.5000000000000004 2259.5000000000005 2463.5000000000005 2282.5000000000005 1.5000000000000002 1313.5000000000002 4.5000000000000009 4.5000000000000009 1.5000000000000002 1567.5000000000002 1495.5000000000002 4.5000000000000009 15.787439388350558 2644.5000000000005 1478.5000000000002 2187.5000000000005 4.5000000000000009 1208.5000000000002 2652.5000000000005 2723.5000000000005 2716.5000000000005 1797.5000000000002 2884.5000000000005 22.005349763863613 17.945492594309481 17.486447762168702 13.390448119229918 2171.5000000000005
decision_type=2 2 2 2 2 2 2 2 2 2 2 2 2 2 2 2 2 2 2 2 2 2 2 2 2 2 2 2 2 2
left_child=2 7 5 11 9 10 -7 18 21 29 16 19 -12 25 24 -5 -1 -11 -2 -4 -16 -6 -8 26 -10 -9 -15 -13 -19 -3
right_child=1 4 3 15 8 6 22 13 14 17 12 27 -14 23 20 -17 -18 28 -20 -21 -22 -23 -24 -25 -26 -27 -28 -29 -30 -31
leaf_value=-13381.650226775333 -4869.2377565722736 4709.4755230053988 -9102.5855860399988 3896.0880589309704 11232.737770470882 -7353.9414954598587 -2012.122059233928 -255.60078661095611 15195.151859794432 10528.427082929629 -10221.902944824295 -2535.9591742774419 -5817.1583906885626 2532.7224947358141 18921.00002961676 7865.1921006244447 -10459.516726176736 10638.895318761119 -1062.2616890104298 -5071.9006493437591 24274.684576211657 15061.400393454614 1175.7225382669242 8718.1616264774166 21711.428564114045 3546.7785476740264 6064.105181257436 245.80657736560076 15730.474389109828 7782.444312454365
leaf_weight=1427 1002 880 658 1299 841 2364 1435 1460 539 1018 1601 1120 2572 793 332 1165 2569 213 962 1159 672 838 893 301 144 411 692 1084 687 872
leaf_count=1427 1002 880 658 1299 841 2364 1435 1460 539 1018 1601 1120 2572 793 332 1165 2569 213 962 1159 672 838 893 301 144 411 692 1084 687 872
internal_value=0 7483.08 -5000.15 -33.5678 12890.9 -7504.49 -4096.8 713.868 16630.8 9460.9 -9461.76 -3591.56 -7507.07 2710.84 20101.4 5772.71 -11503 12404 -3004.52 -6531.55 22504.3 13143.6 -789.293 4943.44 16569 579.663 4178.32 -1167.79 14525.5 6238.94
internal_weight=0 12657 19346 6485 7036 12861 4692 5621 3366 3670 8169 4021 4173 3657 1687 2464 3996 1918 1964 1817 1004 1679 2328 1786 683 1871 1485 2204 900 1752
internal_count=32003 12657 19346 6485 7036 12861 4692 5621 3366 3670 8169 4021 4173 3657 1687 2464 3996 1918 1964 1817 1004 1679 2328 1786 683 1871 1485 2204 900 1752
is_linear=0
shrinkage=0.05


Tree=14
num_leaves=31
num_cat=0
split_feature=5 0 5 0 0 0 5 0 5 5 5 0 0 5 3 0 5 0 0 0 0 0 0 3 0 0 3 3 3 0
split_gain=4.3042e+14 1.67264e+14 8.6866e+13 4.83638e+13 3.25825e+13 3.09665e+13 1.82475e+13 1.51192e+13 1.47059e+13 1.25631e+13 1.17667e+13 1.03438e+13 6.9198e+12 5.81171e+12 5.16936e+12 3.4929e+12 3.18753e+12 2.82794e+12 2.75503e+12 2.48249e+12 2.31582e+12 2.22122e+12 2.0194e+12 1.76461e+12 1.74195e+12 1.72783e+12 1.53881e+12 1.52162e+12 1.50523e+12 1.4931e+12
threshold=3.5000000000000004 1894.5000000000002 2.5000000000000004 2259.5000000000005 2463.5000000000005 2282.5000000000005 1.5000000000000002 1347.5000000000002 4.5000000000000009 4.5000000000000009 1.5000000000000002 1567.5000000000002 1511.5000000000002 4.5000000000000009 15.787439388350558 2644.5000000000005 4.5000000000000009 1478.5000000000002 2187.5000000000005 1181.5000000000002 2675.5000000000005 2723.5000000000005 2716.5000000000005 22.005349763863613 2884.5000000000005 1797.5000000000002 17.486447762168702 13.390448119229918 17.945492594309481 2171.5000000000005
decision_type=2 2 2 2 2 2 2 2 2 2 2 2 2 2 2 2 2 2 2 2 2 2 2 2 2 2 2 2 2 2
left_child=2 7 5 11 9 10 -7 16 21 29 17 19 -12 23 24 -5 -2 -1 -11 -4 -16 -6 -8 -9 -10 28 -13 -20 -15 -3
right_child=1 4 3 15 8 6 22 13 14 18 12 26 -14 25 20 -17 -18 -19 27 -21 -22 -23 -24 -25 -26 -27 -28 -29 -30 -31
leaf_value=-12712.56768103361 -4480.6267038187407 4474.0017455655943 -8910.8549500448898 3701.2837097528445 10671.100856881705 -6986.2444113046795 -1911.5159364228466 -96.059687430882775 14435.394258647064 10002.005711211859 -9639.3793020133089 -2409.1612167215349 -5478.5515928155437 2555.0223923779317 18242.443821794452 7471.9325223295673 -651.28898456591241 -9936.5408232003247 10106.950779088338 -4942.6701441816404 23217.528263071552 14308.33054601804 1116.936346666223 3704.7375552157969 20625.857347954647 8282.2536267454834 233.51626292717853 14943.95074876455 5875.4192510240136 7393.3221022203434
leaf_weight=1427 1099 880 578 1299 841 2364 1435 1382 539 1018 1658 1120 2515 734 371 1165 1075 2569 213 1239 633 838 893 392 144 301 1084 687 638 872
leaf_count=1427 1099 880 578 1299 841 2364 1435 1382 539 1018 1658 1120 2515 734 371 1165 1075 2569 213 1239 633 838 893 392 144 301 1084 687 638 872
internal_value=0 7108.92 -4750.15 -31.8894 12246.4 -7129.27 -3891.96 678.175 15799.2 8987.85 -8988.67 -3411.98 -7131.72 2737.56 19096.3 5484.08 -2587.09 -10927.9 11783.8 -6204.98 21379.1 12486.5 -749.829 743.801 15740.6 4851.68 -1109.41 13799.2 4099.06 5927
internal_weight=0 12657 19346 6485 7036 12861 4692 5621 3366 3670 8169 4021 4173 3447 1687 2464 2174 3996 1918 1817 1004 1679 2328 1774 683 1673 2204 900 1372 1752
internal_count=32003 12657 19346 6485 7036 12861 4692 5621 3366 3670 8169 4021 4173 3447 1687 2464 2174 3996 1918 1817 1004 1679 2328 1774 683 1673 2204 900 1372 1752
is_linear=0
shrinkage=0.05


Tree=15
num_leaves=31
num_cat=0
split_feature=5 4 4 5 4 5 5 5 5 5 5 4 3 5 4 3 3 3 3 3 1 3 1 1 3 3 2 1 3 1
split_gain=3.98587e+14 1.90185e+14 5.96955e+13 5.11592e+13 3.31818e+13 2.6629e+13 1.70295e+13 1.55566e+13 1.34981e+13 1.20634e+13 7.72541e+12 7.01359e+12 4.65943e+12 4.3469e+12 3.50527e+12 2.39381e+12 2.04255e+12 1.95843e+12 1.89043e+12 1.34336e+12 1.28621e+12 1.28437e+12 1.23199e+12 1.09128e+12 1.07487e+12 9.79484e+11 9.89976e+11 9.392e+11 9.17241e+11 8.53132e+11
threshold=2.5000000000000004 1.5000000000000002 2.5000000000000004 4.5000000000000009 1.5000000000000002 4.5000000000000009 4.5000000000000009 1.5000000000000002 3.5000000000000004 1.5000000000000002 3.5000000000000004 2.5000000000000004 17.256316984687647 3.5000000000000004 2.5000000000000004 16.141840685716975 24.354605310451117 18.826941439381319 12.574999774424523 12.770910756715688 3.5000000000000004 18.237582856822971 3.5000000000000004 2.5000000000000004 18.704169186061524 22.005349763863613 1.5000000000000002 3.5000000000000004 14.990612320422493 3.5000000000000004
decision_type=2 2 2 2 2 2 2 2 2 2 2 2 2 2 2 2 2 2 2 2 2 2 2 2 2 2 2 2 2 2
left_child=4 3 5 8 7 10 13 -1 18 14 24 -11 23 28 -6 -10 22 -7 -2 -8 -12 -9 -14 -5 -3 26 -17 -20 -4 -15
right_child=1 2 6 12 9 17 19 21 15 11 20 -13 16 29 -16 25 -18 -19 27 -21 -22 -23 -24 -25 -26 -27 -28 -29 -30 -31
leaf_value=-6229.1526332309495 2495.9007016513888 -859.12912140277751 -7256.5859668140583 12685.690676049806 -9033.2171938081774 7828.082080648076 -1382.762902792603 -1307.6917783067718 9294.3759368974333 -4667.403414416126 3127.0844477601104 -8720.5616710192116 17824.798832265362 -3576.7439813417413 -11894.210001576766 9315.8422179948047 27620.545880268895 10917.534153624832 5343.3018510242873 1870.0540626102265 5562.8688710421884 1125.6587556156687 21312.55381358106 16466.923021037765 1425.0048348736061 14747.830599943796 13048.284625717541 7586.5798917978609 -5046.3694614140031 -1547.0685384241497
leaf_weight=2111 362 1238 700 250 2205 1269 387 1208 784 2163 1092 2107 499 1029 2081 268 86 861 951 1765 1076 984 514 806 882 432 527 916 1425 1042
leaf_count=2111 362 1238 700 250 2205 1269 387 1208 784 2163 1092 2107 499 1029 2081 268 86 861 951 1765 1076 984 514 806 882 432 527 916 1425 1042
internal_value=0 4632.51 1106.83 11670.6 -6747.16 4507.25 -2331.08 -3165.65 8482.37 -8548.38 2237.33 -6667.4 17943.6 -4185.7 -10422.3 11452.5 20222.6 9076.92 5802.74 1285.09 4335.99 -215.348 19594.5 15571.7 91.1568 12831.4 11790.1 6443.91 -5774.44 -2555.54
internal_weight=0 19161 12766 6395 12859 6418 6348 4303 4240 8556 4288 4270 2155 4196 4286 2011 1099 2130 2229 2152 2168 2192 1013 1056 2120 1227 795 1867 2125 2071
internal_count=32020 19161 12766 6395 12859 6418 6348 4303 4240 8556 4288 4270 2155 4196 4286 2011 1099 2130 2229 2152 2168 2192 1013 1056 2120 1227 795 1867 2125 2071
is_linear=0
shrinkage=0.05


Tree=16
num_leaves=31
num_cat=0
split_feature=5 0 4 4 4 5 4 0 5 0 5 0 5 0 5 5 5 0 0 5 0 4 0 5 4 0 4 0 5 3
split_gain=3.59724e+14 1.88588e+14 1.51616e+14 4.32032e+13 3.57337e+13 3.47889e+13 2.99466e+13 2.11075e+13 1.9405e+13 1.72801e+13 1.51154e+13 1.33067e+13 1.32951e+13 9.87105e+12 9.59376e+12 8.75498e+12 7.73265e+12 7.28599e+12 6.08491e+12 5.83193e+12 5.13204e+12 5.10557e+12 4.87804e+12 4.30709e+12 4.29038e+12 4.17281e+12 4.15017e+12 4.00462e+12 3.86158e+12 3.79032e+12
threshold=2.5000000000000004 1831.5000000000002 1.5000000000000002 2.5000000000000004 2.5000000000000004 3.5000000000000004 1.5000000000000002 2320.5000000000005 3.5000000000000004 2320.5000000000005 4.5000000000000009 1755.5000000000002 4.5000000000000009 2344.5000000000005 1.5000000000000002 1.5000000000000002 4.5000000000000009 1338.5000000000002 1313.5000000000002 1.5000000000000002 2392.5000000000005 2.5000000000000004 2579.5000000000005 4.5000000000000009 1.5000000000000002 1470.5000000000002 1.5000000000000002 2479.5000000000005 4.5000000000000009 16.538275380386825
decision_type=2 2 2 2 2 2 2 2 2 2 2 2 2 2 2 2 2 2 2 2 2 2 2 2 2 2 2 2 2 2
left_child=6 4 5 8 10 20 9 28 -4 19 17 -8 22 -10 -13 -11 -9 -2 -12 -1 -3 -16 -5 -15 -19 -21 -20 -14 -7 -18
right_child=1 2 3 12 -6 7 11 16 13 15 18 14 27 23 21 -17 29 24 26 25 -22 -23 -24 -25 -26 -27 -28 -29 -30 -31
leaf_value=-7621.5946711492206 -3885.2468115243232 6710.6998593124445 3115.3621061667418 -3141.1812083341833 -6332.0980507194581 11498.867371685223 -10646.076147387023 20410.462057043987 7174.6152025770953 -2632.7844624555064 808.94449305926184 -8690.7303361080158 2270.6755307108001 10856.468121208029 -2278.3652345805981 5022.2105314257224 23666.633046797495 2959.7145132954224 10112.223495876407 -6749.1623882921822 13045.123876317717 -6677.4279280064475 1551.145252579493 16343.473289825351 -1494.4917804872039 -1065.9102927920867 3931.0246489056549 7868.067818328218 17587.329037155181 30948.512323633524
leaf_weight=1390 1378 602 1248 1604 2602 472 3241 690 1103 721 645 2676 724 752 1341 775 315 1098 529 498 682 1298 846 682 1065 919 558 572 581 413
leaf_count=1390 1378 602 1248 1604 2602 472 3241 690 1103 721 645 2676 724 752 1341 775 315 1098 529 498 682 1298 846 682 1065 919 558 572 581 413
internal_value=0 4400.88 8544.43 4452.29 -1537.42 16751.6 -6409.8 20220.8 8219.78 -3007.37 828.543 -8120.96 645.573 10730.8 -6581.18 1332.87 24203.1 -1043.7 4656.26 -5320.51 10075.2 -4442.06 -1520.89 13466 766.589 -3063.27 6939.17 4741.13 14858.2 27797.7
internal_weight=0 19161 11286 7531 7875 3755 12859 2471 3785 4303 5273 8556 3746 2537 5315 1496 1418 3541 1732 2807 1284 2639 2450 1434 2163 1417 1087 1296 1053 728
internal_count=32020 19161 11286 7531 7875 3755 12859 2471 3785 4303 5273 8556 3746 2537 5315 1496 1418 3541 1732 2807 1284 2639 2450 1434 2163 1417 1087 1296 1053 728
is_linear=0
shrinkage=0.05


Tree=17
num_leaves=31
num_cat=0
split_feature=5 0 5 0 0 0 5 0 5 5 0 5 0 5 3 5 0 0 0 3 0 5 0 0 0 3 0 3 0 3
split_gain=3.2557e+14 1.36232e+14 6.57172e+13 5.79719e+13 2.22871e+13 2.01429e+13 1.39194e+13 1.34284e+13 9.5478e+12 8.47167e+12 8.23936e+12 5.68042e+12 5.34239e+12 4.39366e+12 4.32199e+12 4.26987e+12 3.64e+12 3.52386e+12 2.40721e+12 2.17975e+12 2.15034e+12 2.05055e+12 2.02007e+12 1.70927e+12 1.56926e+12 1.5294e+12 1.84359e+12 1.41118e+12 1.32141e+12 1.31942e+12
threshold=3.5000000000000004 2071.5000000000005 1.5000000000000002 2235.5000000000005 1639.5000000000002 2572.5000000000005 2.5000000000000004 1631.5000000000002 4.5000000000000009 4.5000000000000009 1747.5000000000002 2.5000000000000004 1137.5000000000002 4.5000000000000009 18.64784348712692 4.5000000000000009 2709.5000000000005 1286.5000000000002 2644.5000000000005 15.960587352028689 2586.5000000000005 2.5000000000000004 2320.5000000000005 2918.5000000000005 2235.5000000000005 16.307190492404082 2945.5000000000005 17.945492594309481 2851.5000000000005 18.948241233272984
decision_type=2 2 2 2 2 2 2 2 2 2 2 2 2 2 2 2 2 2 2 2 2 2 2 2 2 2 2 2 2 2
left_child=2 4 10 7 12 9 20 17 25 22 -1 -9 -2 19 23 -14 -8 -4 -12 -6 -5 -19 -3 -10 -11 -7 -27 -17 -16 -13
right_child=1 5 3 6 13 8 16 11 14 24 18 29 15 -15 28 27 -18 21 -20 -21 -22 -23 -24 -25 -26 26 -28 -29 -30 -31
leaf_value=-10517.847161703154 -4425.4888909220417 4597.7077528917571 -8313.5192205872208 -2048.6360850215915 370.35848961895658 9903.0414959234349 3378.702794141685 -4455.2815524269899 14360.643145884846 9558.7105135481888 -7572.5677389497769 -1675.7374297182237 -1840.9925660041929 6922.5030206804076 19322.056871584817 456.31659575877467 7298.0795520021147 -6794.9066709357467 -4869.1781961935658 4494.0504235682629 913.58544518550536 -3786.264799679273 8189.0919097642709 19998.190753317442 12742.190759458525 12430.620188960303 19732.223051313922 3456.8589085658941 24278.427936938926 987.53941783032394
leaf_weight=2363 870 742 1782 1121 524 544 1582 1934 643 604 2881 1186 1575 1356 351 850 947 1173 1153 825 1351 1095 829 170 1078 682 99 727 218 765
leaf_count=2363 870 742 1782 1121 524 544 1582 1934 643 604 2881 1186 1575 1356 351 850 947 1173 1153 825 1351 1095 829 170 1078 682 99 727 218 765
internal_value=0 6280.16 -4027.82 -1977.85 1403.28 11784.7 2238.38 -4635.1 14971.1 9133.05 -8173.27 -2535 -956.92 4912.6 17878.7 0.457564 4846.34 -6649.65 -6799.88 2892.26 -429.72 -5342.32 6492.84 15539.5 11599 11938.4 13356.2 1839.57 21221 -631.449
internal_weight=0 12687 19333 12936 6727 5960 5001 7935 2707 3253 6397 3885 4022 2705 1382 3152 2529 4050 4034 1349 2472 2268 1571 813 1682 1325 781 1577 569 1951
internal_count=32020 12687 19333 12936 6727 5960 5001 7935 2707 3253 6397 3885 4022 2705 1382 3152 2529 4050 4034 1349 2472 2268 1571 813 1682 1325 781 1577 569 1951
is_linear=0
shrinkage=0.05


Tree=18
num_leaves=31
num_cat=0
split_feature=5 4 0 4 0 5 5 4 0 0 0 0 4 0 4 5 4 0 0 5 0 5 5 0 0 5 0 0 0 5
split_gain=2.93827e+14 1.25534e+14 7.72424e+13 6.06869e+13 5.59402e+13 3.55569e+13 2.62833e+13 2.49984e+13 2.40971e+13 2.18423e+13 1.48366e+13 1.33797e+13 1.20053e+13 1.04509e+13 1.03206e+13 9.69101e+12 7.28244e+12 6.91386e+12 5.19532e+12 4.33996e+12 4.28939e+12 4.10485e+12 3.75751e+12 3.6653e+12 3.61766e+12 3.61384e+12 3.50041e+12 2.94638e+12 2.85119e+12 2.83236e+12
threshold=3.5000000000000004 1.5000000000000002 2063.5000000000005 1.5000000000000002 2086.5000000000005 2.5000000000000004 1.5000000000000002 2.5000000000000004 2235.5000000000005 1814.5000000000002 1901.5000000000002 1672.5000000000002 2.5000000000000004 2629.5000000000005 2.5000000000000004 1.5000000000000002 2.5000000000000004 1520.5000000000002 2709.5000000000005 4.5000000000000009 2392.5000000000005 2.5000000000000004 4.5000000000000009 1583.5000000000002 1355.5000000000002 4.5000000000000009 1681.5000000000002 1355.5000000000002 2615.5000000000005 4.5000000000000009
decision_type=2 2 2 2 2 2 2 2 2 2 2 2 2 2 2 2 2 2 2 2 2 2 2 2 2 2 2 2 2 2
left_child=3 2 11 5 12 10 26 18 16 -7 -1 27 17 22 21 -12 24 -3 29 -15 -11 -10 -4 -14 -8 -9 -5 -2 -17 -6
right_child=1 4 13 6 7 9 8 25 14 20 15 -13 23 19 -16 28 -18 -19 -20 -21 -22 -23 -24 -25 -26 -27 -28 -29 -30 -31
leaf_value=-5885.1277716507648 1482.9180843637012 -1571.8347214176708 14306.345801136413 -11019.291521930565 6773.7814445098011 -645.08854237117168 -7473.2670468899414 551.17670032185049 -613.18759940928317 6387.1579014119798 -3228.6994858893795 11764.994547543603 -5695.8490411383209 20878.923149348961 -3710.1734281651839 1345.1950420247447 -8176.0571439924352 3926.7852625903529 14537.72943966252 28321.785057715439 12133.419007467455 4357.2499865000345 19970.143963593753 -1691.4972250171043 -3309.8701374874254 4883.4649918866471 -7999.2097329224453 6084.3138392465562 6358.4720252554262 11305.862050647378
leaf_weight=1885 726 1096 551 1450 686 927 719 929 817 620 1173 811 1220 375 1602 808 2630 1195 628 410 682 845 625 1075 1902 999 2836 668 437 693
leaf_count=1885 726 1096 551 1450 686 927 719 929 817 620 1173 811 1220 375 1602 808 2630 1195 628 410 682 845 625 1075 1902 999 2836 668 437 693
internal_value=0 5966.15 13079.2 -3826.43 2488.51 95.2039 -5827.53 6862.03 -4220.14 5220.74 -2559.88 6658.65 -1264.18 20298.7 -846.445 32.3844 -6317.21 1296.28 10768 24766.3 9397.1 1913.9 17316.4 -3820.17 -4451.98 2795.97 -9020.94 3687.89 3104.88 9051.32
internal_weight=0 12687 4166 19333 8521 6532 12801 3935 8515 2229 4303 2205 4586 1961 3264 2418 5251 2291 2007 785 1302 1662 1176 2295 2621 1928 4286 1394 1245 1379
internal_count=32020 12687 4166 19333 8521 6532 12801 3935 8515 2229 4303 2205 4586 1961 3264 2418 5251 2291 2007 785 1302 1662 1176 2295 2621 1928 4286 1394 1245 1379
is_linear=0
shrinkage=0.05


Tree=19
num_leaves=31
num_cat=0
split_feature=5 4 4 5 4 5 5 5 5 4 5 5 3 5 5 3 3 3 3 1 1 1 3 3 3 1 1 3 3 2
split_gain=2.66484e+14 1.39858e+14 4.35472e+13 3.54762e+13 2.46227e+13 1.84037e+13 1.12934e+13 1.08761e+13 9.16842e+12 8.24059e+12 5.14454e+12 4.79447e+12 3.84676e+12 2.89588e+12 2.8665e+12 2.1293e+12 1.67399e+12 1.66751e+12 1.45732e+12 1.24734e+12 1.23929e+12 1.18766e+12 1.14407e+12 1.12126e+12 9.73943e+11 8.74518e+11 8.10107e+11 7.72128e+11 7.69923e+11 7.68051e+11
threshold=2.5000000000000004 1.5000000000000002 2.5000000000000004 4.5000000000000009 1.5000000000000002 4.5000000000000009 4.5000000000000009 1.5000000000000002 3.5000000000000004 2.5000000000000004 1.5000000000000002 3.5000000000000004 18.64784348712692 3.5000000000000004 1.5000000000000002 22.005349763863613 12.574999774424523 18.826941439381319 24.468447301301232 2.5000000000000004 3.5000000000000004 4.5000000000000009 18.237582856822971 12.770910756715688 16.652931441780805 3.5000000000000004 3.5000000000000004 16.711210343752846 14.990612320422493 1.5000000000000002
decision_type=2 2 2 2 2 2 2 2 2 2 2 2 2 2 2 2 2 2 2 2 2 2 2 2 2 2 2 2 2 2
left_child=4 3 5 8 7 11 13 -1 16 10 -6 24 19 28 -11 20 -2 -7 25 -5 -10 27 -9 -8 -3 -14 -18 -13 -4 -19
right_child=1 2 6 12 9 17 23 22 15 14 -12 21 18 -15 -16 -17 26 29 -20 -21 -22 -23 -24 -25 -26 -27 -28 -29 -30 -31
leaf_value=-4993.4037928596372 1847.9224858405182 -1069.5426063127204 -6337.0865606951038 10393.899534000762 -7248.8165979221885 6315.0840242546692 -1664.6339079075697 -995.97734813571776 7361.5473852206014 -9969.6800530656838 -3816.7789630952061 1623.4769223567 15335.666521093428 -2351.8770952870454 -7353.4184263525385 12726.495315947357 4540.8820640684307 7123.7205246175135 24414.328345758142 14124.954466816269 10163.086104081223 5464.2198333035121 1300.6235297088701 1307.1465374329002 1080.5978527615955 18581.68051048445 6624.2950200076712 3803.9054583207617 -4312.1252336500738 10257.904840544839
leaf_weight=2111 362 976 700 292 2205 1269 387 1208 788 2081 2163 779 417 2071 2107 432 951 300 71 962 791 541 984 1765 1144 413 916 848 1425 561
leaf_count=2111 362 976 700 292 2205 1269 387 1208 788 2081 2163 779 417 2071 2107 432 951 300 71 962 791 541 984 1765 1144 413 916 848 1425 561
internal_value=0 3787.63 764.213 9823.11 -5517.09 3668.51 -2172.11 -2431.89 7168.14 -7068.71 -5549.3 1781.45 15046.8 -3682.43 -8653.43 9615.99 4959.7 7467.44 17539 13256.2 8764.98 3434.75 34.9785 772.723 90.7219 16950.9 5563.06 2759.93 -4979.17 9165.85
internal_weight=0 19161 12766 6395 12859 6418 6348 4303 4240 8556 4368 4288 2155 4196 4188 2011 2229 2130 901 1254 1579 2168 2192 2152 2120 830 1867 1627 2125 861
internal_count=32020 19161 12766 6395 12859 6418 6348 4303 4240 8556 4368 4288 2155 4196 4188 2011 2229 2130 901 1254 1579 2168 2192 2152 2120 830 1867 1627 2125 861
is_linear=0
shrinkage=0.05


Tree=20
num_leaves=31
num_cat=0
split_feature=5 0 4 0 5 4 4 4 4 5 4 0 0 5 4 0 0 4 0 5 5 0 4 5 5 4 5 0 0 5
split_gain=2.39319e+14 1.10782e+14 7.06407e+13 5.20123e+13 3.57194e+13 3.55082e+13 1.89072e+13 1.76889e+13 1.70114e+13 1.45946e+13 1.45595e+13 1.33306e+13 1.16146e+13 8.85957e+12 7.93204e+12 7.08349e+12 6.93743e+12 5.45161e+12 5.36276e+12 4.27559e+12 3.6774e+12 3.57492e+12 3.52879e+12 3.19003e+12 3.12573e+12 2.8345e+12 2.73762e+12 2.66504e+12 2.42744e+12 2.03757e+12
threshold=3.5000000000000004 2171.5000000000005 1.5000000000000002 2187.5000000000005 2.5000000000000004 1.5000000000000002 2.5000000000000004 1.5000000000000002 2.5000000000000004 2.5000000000000004 2.5000000000000004 1648.5000000000002 1520.5000000000002 1.5000000000000002 2.5000000000000004 1706.5000000000002 2636.5000000000005 2.5000000000000004 1403.5000000000002 1.5000000000000002 4.5000000000000009 2660.5000000000005 1.5000000000000002 4.5000000000000009 4.5000000000000009 2.5000000000000004 1.5000000000000002 1379.5000000000002 2669.5000000000005 4.5000000000000009
decision_type=2 2 2 2 2 2 2 2 2 2 2 2 2 2 2 2 2 2 2 2 2 2 2 2 2 2 2 2 2 2
left_child=3 5 16 8 10 11 21 -6 9 18 13 27 25 -5 24 -11 23 -9 -1 -20 -18 -4 -15 -3 -14 -7 -10 -2 -8 -13
right_child=1 2 6 4 7 12 28 17 26 15 -12 29 14 22 -16 -17 20 -19 19 -21 -22 -23 -24 -25 -26 -27 -28 -29 -30 -31
leaf_value=-8155.3766296677732 1084.8117403584627 13336.04748061174 8617.7332287834051 -3500.2480708163671 10018.311638604908 -2032.9401003731327 1600.4855827599622 4165.1531506509491 -10371.992536738489 -3336.8983460913878 -6536.1149213642657 8254.1536372526916 1337.6405173247715 3675.6694608972075 -1615.1435561318731 2108.9083294547354 19204.798045860432 -1384.756158508023 -6508.979667984926 -2958.2827160657839 26125.126753638891 13198.083165674347 -757.09802452905535 19077.792240616101 6069.904329709454 -5685.5158930207035 -7491.9170166126751 5607.0469192494811 5448.5096248120744 12601.508052720766
leaf_weight=1691 764 461 1065 1727 900 1077 1053 891 1227 1514 1737 524 689 921 1376 986 379 879 1672 1720 389 710 876 509 707 1048 2519 568 671 555
leaf_count=1691 764 461 1065 1727 900 1077 1053 891 1227 1514 1737 524 689 921 1376 986 379 879 1672 1720 389 710 876 509 707 1048 2519 568 671 555
internal_value=0 5369.86 10920.3 -3504.62 -399.15 1392.36 6827.6 4311.02 -5678.64 -4316.85 -2789.6 6359.44 -1053.15 -942.921 1078.87 -1189.07 19159.8 1409.01 -5855.2 -4708.51 22710 10449.9 1514.79 16349 3734.28 -3834.3 -8435.28 3013.21 3098.18 10490.3
internal_weight=0 12545 5237 19260 7931 7308 3499 2670 11329 7583 5261 2411 4897 3524 2772 2500 1738 1770 5083 3392 768 1775 1797 970 1396 2125 3746 1332 1724 1079
internal_count=31805 12545 5237 19260 7931 7308 3499 2670 11329 7583 5261 2411 4897 3524 2772 2500 1738 1770 5083 3392 768 1775 1797 970 1396 2125 3746 1332 1724 1079
is_linear=0
shrinkage=0.05


Tree=21
num_leaves=31
num_cat=0
split_feature=5 0 4 0 5 4 4 4 4 0 4 5 4 5 0 0 5 0 5 0 4 0 0 0 3 4 0 5 4 5
split_gain=2.15985e+14 1.00198e+14 7.66765e+13 4.71617e+13 4.02798e+13 2.12486e+13 2.11233e+13 2.01032e+13 1.72981e+13 1.27468e+13 7.844e+12 6.89597e+12 6.68014e+12 6.55889e+12 6.28165e+12 6.24394e+12 5.73829e+12 5.70824e+12 5.56484e+12 4.7827e+12 4.73825e+12 4.34572e+12 3.60496e+12 3.41948e+12 3.026e+12 2.95758e+12 2.81927e+12 2.73006e+12 2.35043e+12 2.11048e+12
threshold=3.5000000000000004 1894.5000000000002 1.5000000000000002 1755.5000000000002 2.5000000000000004 2.5000000000000004 1.5000000000000002 1.5000000000000002 1.5000000000000002 2312.5000000000005 2.5000000000000004 1.5000000000000002 2.5000000000000004 1.5000000000000002 1233.5000000000002 2495.5000000000005 1.5000000000000002 1379.5000000000002 4.5000000000000009 2376.5000000000005 2.5000000000000004 2479.5000000000005 1338.5000000000002 2503.5000000000005 15.22762115299132 2.5000000000000004 2495.5000000000005 4.5000000000000009 2.5000000000000004 4.5000000000000009
decision_type=2 2 2 2 2 2 2 2 2 2 2 2 2 2 2 2 2 2 2 2 2 2 2 2 2 2 2 2 2 2
left_child=3 7 9 10 8 15 19 17 11 -3 13 -5 23 -1 -9 27 28 -2 -11 -6 -16 -7 -15 -8 -20 -18 -13 -4 -10 -19
right_child=1 2 5 4 6 21 12 14 16 18 -12 26 -14 22 20 -17 25 29 24 -21 -22 -23 -24 -25 -26 -27 -28 -29 -30 -31
leaf_value=-8026.7776309453111 1030.5711503123737 11811.122555032234 4034.1023916831837 -2835.5088093771578 4723.9638758034152 -33.057448922429217 459.51756068349351 -5517.7110923557539 -5266.7640139044615 16232.931076490131 -8907.7492920557925 345.01937098745572 -2370.1820013043466 -5977.3149954383698 1209.9259129664049 11479.638673833048 -1814.1142199736923 4547.483840208627 18206.840147816052 10679.282173776419 -2993.5018241777652 4301.2125147459246 -2620.9532385922739 5598.2776701127614 24914.626027908493 -5160.275100545693 4897.7090942501609 8593.2818357351116 -8219.4291721131594 9012.4378375447195
leaf_weight=1581 764 898 643 1299 662 1245 773 983 1349 700 2351 826 1362 1430 1371 1091 1340 549 264 687 1312 1080 1816 557 463 1302 578 671 1347 511
leaf_count=1581 764 898 643 1299 662 1245 773 983 1349 700 2351 826 1362 1430 1371 1091 1340 549 264 687 1312 1080 1816 557 463 1302 578 671 1347 511
internal_value=0 5101.37 9043.23 -3329.39 -1422.31 5388.68 2650.13 35.8296 -3468.91 16478.1 -6539.38 -209.939 91.1069 -5385.86 -2098.36 8683.7 -5119.15 4325.26 19414.9 7756.81 -845.571 1980.28 -4099.57 2611.61 22478.8 -3463.13 2219.27 6362.27 -6742 6699.93
internal_weight=0 12545 7055 19260 12082 4730 4041 5490 8041 2325 7178 2703 2692 4827 3666 2405 5338 1824 1427 1349 2683 2325 3246 1330 727 2642 1404 1314 2696 1060
internal_count=31805 12545 7055 19260 12082 4730 4041 5490 8041 2325 7178 2703 2692 4827 3666 2405 5338 1824 1427 1349 2683 2325 3246 1330 727 2642 1404 1314 2696 1060
is_linear=0
shrinkage=0.05


Tree=22
num_leaves=31
num_cat=0
split_feature=5 0 0 5 0 5 0 5 5 0 0 5 5 0 0 3 3 5 0 0 3 0 3 3 3 0 3 1 5 0
split_gain=1.94927e+14 9.07597e+13 4.35047e+13 2.45536e+13 1.82259e+13 1.81164e+13 1.2394e+13 1.16562e+13 7.61852e+12 6.79522e+12 5.55302e+12 5.18757e+12 5.01439e+12 3.44301e+12 2.20251e+12 2.1485e+12 2.00337e+12 1.99841e+12 1.96912e+12 1.96416e+12 1.75361e+12 1.63731e+12 1.52666e+12 1.35867e+12 1.34062e+12 1.28045e+12 1.18304e+12 1.10651e+12 1.07954e+12 1.07795e+12
threshold=3.5000000000000004 2147.5000000000005 2376.5000000000005 2.5000000000000004 1495.5000000000002 1.5000000000000002 1503.5000000000002 4.5000000000000009 1.5000000000000002 2652.5000000000005 2622.5000000000005 4.5000000000000009 2.5000000000000004 1155.5000000000002 1403.5000000000002 13.390448119229918 15.84327544725334 4.5000000000000009 1831.5000000000002 1119.5000000000002 15.664888736024942 1770.5000000000002 18.295432879328825 18.889263312679343 19.764587639199632 2857.5000000000005 24.468447301301232 3.5000000000000004 2.5000000000000004 2837.5000000000005
decision_type=2 2 2 2 2 2 2 2 2 2 2 2 2 2 2 2 2 2 2 2 2 2 2 2 2 2 2 2 2 2
left_child=2 4 5 8 13 14 19 10 -4 15 -3 20 27 -2 -1 -9 -11 -15 -13 -7 -6 -14 -5 -23 -12 -10 -17 -8 -21 -24
right_child=1 7 3 22 11 6 12 9 25 16 24 18 21 17 -16 26 -18 -19 -20 28 -22 23 29 -25 -26 -27 -28 -29 -30 -31
leaf_value=-9208.9022277479653 -4247.4388462986162 5383.4870648709202 -4106.8615915069358 3511.4055933882551 -440.96700273993878 -8161.8365410803526 -4580.3323701650934 6676.3170513173427 -460.4510118625692 12462.012940888011 8762.0239554204709 3496.409420931212 -2361.1295220947263 -2219.6908959443717 -6718.0249707562898 10646.738167486321 16829.59547753074 915.73439420423347 6562.5951521540046 -6319.1664126886026 2610.0452110598962 -841.46660948039562 5255.8084729872753 1874.1263217373962 12322.330323890686 2517.5144399062151 17843.351184895833 -2604.2130559105317 -4205.2432859365008 9116.7881783567846
leaf_weight=1249 977 1499 2023 1107 735 777 1369 375 1567 436 780 1031 880 1006 3066 1184 660 1027 1064 1219 1311 1153 706 767 400 469 60 1468 1197 243
leaf_count=1249 977 1499 2023 1107 735 777 1369 375 1567 436 780 1031 880 1006 3066 1184 660 1027 1064 1219 1311 1153 706 767 400 469 60 1468 1197 243
internal_value=0 4846.3 -3162.92 321.196 1152.67 -4783.71 -3486.13 9743.06 -1933.73 12051.9 7403.19 3304.77 -2076.28 -1808.07 -7439.02 9993.8 15092.1 -635.784 5053.65 -5975.1 1514.01 -575.196 4772.91 243.356 9968.91 225.534 10993.8 -3557.79 -5271.83 6244.45
internal_weight=0 12545 19260 6115 7151 13145 8830 5394 4059 2715 2679 4141 5637 3010 4315 1619 1096 2033 2095 3193 2046 2800 2056 1920 1180 2036 1244 2837 2416 949
internal_count=31805 12545 19260 6115 7151 13145 8830 5394 4059 2715 2679 4141 5637 3010 4315 1619 1096 2033 2095 3193 2046 2800 2056 1920 1180 2036 1244 2837 2416 949
is_linear=0
shrinkage=0.05


Tree=23
num_leaves=31
num_cat=0
split_feature=0 4 4 4 0 0 4 0 0 0 0 0 3 3 3 1 0 0 3 1 0 3 0 3 0 3 1 3 3 1
split_gain=1.12403e+14 8.86442e+13 2.71868e+13 2.52732e+13 1.4331e+13 8.2867e+12 7.68485e+12 7.62584e+12 4.95708e+12 4.22881e+12 3.2852e+12 2.64065e+12 2.2893e+12 1.8379e+12 1.73222e+12 1.72751e+12 1.49271e+12 1.44497e+12 1.42219e+12 1.27254e+12 1.21084e+12 1.18302e+12 1.04654e+12 1.03154e+12 1.01894e+12 1.0068e+12 9.22612e+11 9.20803e+11 8.72023e+11 8.02313e+11
threshold=1901.5000000000002 1.5000000000000002 2.5000000000000004 1.5000000000000002 2629.5000000000005 2495.5000000000005 2.5000000000000004 1403.5000000000002 1338.5000000000002 2479.5000000000005 2320.5000000000005 1276.5000000000002 15.275565205641737 13.0253328988049 19.121899384512368 3.5000000000000004 2801.5000000000005 1119.5000000000002 16.538275380386825 3.5000000000000004 2857.5000000000005 15.664888736024942 1681.5000000000002 20.175811140817114 1128.5000000000002 15.90041731993761 3.5000000000000004 12.278378056572356 16.363347537586055 3.5000000000000004
decision_type=2 2 2 2 2 2 2 2 2 2 2 2 2 2 2 2 2 2 2 2 2 2 2 2 2 2 2 2 2 2
left_child=3 4 5 7 10 18 8 17 24 28 14 -8 -6 -9 26 25 -7 -1 -3 -19 -14 -10 29 -11 -5 -12 -2 -17 -4 -15
right_child=1 2 9 6 12 16 11 13 21 23 15 -13 20 22 -16 27 -18 19 -20 -21 -22 -23 -24 -25 -26 -27 -28 -29 -30 -31
leaf_value=-4579.7346395820996 2199.6954830330301 -410.48396321289761 -4542.5113416701579 -7070.8311110276445 8846.9864733521372 3594.5886731331566 -8014.9166102373092 -1169.5930626948077 -3408.7113398934862 -1511.1786292600798 3669.1282708800668 -5455.1667097438149 11169.419935197395 -114.68503696261185 6381.1275090430972 5187.4916308395259 5968.5745179923069 -3201.3990597449842 1724.6666203707093 -269.05769569755404 14326.833158967176 -1378.9972109336059 3396.4705763883903 554.18399541025201 -4580.6907354831701 7302.826890421471 4817.9858224059344 9870.0251947942979 -2833.0237266692611 2490.0860129548455
leaf_weight=633 665 1375 1271 663 710 1650 1472 532 1183 1876 303 3193 788 613 876 123 1106 735 1802 745 494 1826 910 892 1080 514 681 717 1806 571
leaf_count=633 665 1375 1271 663 710 1650 1472 532 1183 1876 303 3193 788 613 876 123 1106 735 1802 745 494 1826 910 892 1080 514 681 717 1806 571
internal_value=0 2658.48 156.66 -3322.57 7677.45 2541 -4821.28 -344.45 -3406.07 -2263.58 5907.19 -6262.87 11124.7 1454.72 4650.64 7592.2 4547.28 -2580.43 800.577 -1725.32 12386.1 -2176.99 2121.45 -845.607 -5527.89 5955.2 3524.4 9184.37 -3539.15 1141.5
internal_weight=0 17649 11778 14156 5871 5933 9417 4739 4752 5845 3879 4665 1992 2626 2222 1657 2756 2113 3177 1480 1282 3009 2094 2768 1743 817 1346 840 3077 1184
internal_count=31805 17649 11778 14156 5871 5933 9417 4739 4752 5845 3879 4665 1992 2626 2222 1657 2756 2113 3177 1480 1282 3009 2094 2768 1743 817 1346 840 3077 1184
is_linear=0
shrinkage=0.05


Tree=24
num_leaves=31
num_cat=0
split_feature=5 0 4 5 4 0 4 4 4 0 0 4 0 4 0 0 0 5 4 5 5 5 5 5 0 5 5 0 4 5
split_gain=1.75835e+14 7.63834e+13 5.32256e+13 3.53993e+13 2.69215e+13 2.31542e+13 1.51055e+13 1.43237e+13 1.24983e+13 9.60013e+12 9.01555e+12 8.12851e+12 8.01485e+12 7.05817e+12 6.69658e+12 5.18023e+12 5.01491e+12 3.88166e+12 3.78075e+12 3.38699e+12 3.16486e+12 3.16009e+12 2.97927e+12 2.86818e+12 2.56352e+12 2.21048e+12 2.07703e+12 2.07184e+12 1.91907e+12 1.90794e+12
threshold=3.5000000000000004 2171.5000000000005 1.5000000000000002 2.5000000000000004 1.5000000000000002 2219.5000000000005 1.5000000000000002 2.5000000000000004 1.5000000000000002 1681.5000000000002 2320.5000000000005 2.5000000000000004 1338.5000000000002 2.5000000000000004 2376.5000000000005 2747.5000000000005 1706.5000000000002 1.5000000000000002 2.5000000000000004 4.5000000000000009 1.5000000000000002 1.5000000000000002 4.5000000000000009 4.5000000000000009 1527.5000000000002 4.5000000000000009 4.5000000000000009 1403.5000000000002 2.5000000000000004 1.5000000000000002
decision_type=2 2 2 2 2 2 2 2 2 2 2 2 2 2 2 2 2 2 2 2 2 2 2 2 2 2 2 2 2 2
left_child=3 4 15 6 9 11 10 23 -7 25 20 16 -6 22 24 19 -5 -12 -10 -3 -1 -16 -14 -4 -8 -2 -9 -22 -23 -26
right_child=1 2 7 5 12 8 14 26 18 -11 17 -13 13 -15 21 -17 -18 -19 -20 -21 27 28 -24 -25 29 -27 -28 -29 -30 -31
leaf_value=-5508.7155756171887 1024.3403328574166 11816.7964453039 6850.3237206202002 -2622.9947147646544 -4045.3523368989358 8620.2357313091743 -8058.8509752672608 665.63793461523323 3547.4423066172262 9338.054082473167 -1626.7664784272736 -5612.5717493249867 608.52971541945999 -1828.3058162977734 -5367.6322425579592 20530.325227307727 1871.2742196340525 3478.2797737383016 -1156.449444346807 17099.650043791524 -4995.1883104035878 -32.794652295653655 4703.1280020869353 10871.30334882494 -7031.3976745304972 5000.2364011843529 4136.7087805400797 -888.30045541769016 -3842.8311138920635 -4746.6463191938064
leaf_weight=1361 724 581 909 1514 1388 859 2170 856 866 1011 715 1317 888 1732 1365 522 1052 777 843 635 443 661 889 866 1828 676 868 1001 661 1827
leaf_count=1361 724 581 909 1514 1388 859 2170 856 866 1011 715 1317 888 1732 1365 522 1052 777 843 635 443 661 889 866 1828 676 868 1001 661 1827
internal_value=0 4603.03 9211.88 -3003.85 1300.28 16.6781 -4525.08 5659.31 3700.15 5625.28 -2108.43 -2419.36 -829.103 443.098 -5745.05 16364 -780.45 1031.83 1227.15 14575.5 -3778.76 -3680.17 2656.98 8812.11 -6697.55 2944.13 2413.25 -2148.24 -1937.81 -5889.33
internal_weight=0 12545 5237 19260 7308 6451 12809 3499 2568 2411 4297 3883 4897 3509 8512 1738 2566 1492 1709 1216 2805 2687 1777 1775 5825 1400 1724 1444 1322 3655
internal_count=31805 12545 5237 19260 7308 6451 12809 3499 2568 2411 4297 3883 4897 3509 8512 1738 2566 1492 1709 1216 2805 2687 1777 1775 5825 1400 1724 1444 1322 3655
is_linear=0
shrinkage=0.05


Tree=25
num_leaves=31
num_cat=0
split_feature=5 4 0 5 0 4 0 4 0 0 5 4 4 4 0 0 0 0 5 4 5 0 5 0 0 5 0 5 3 0
split_gain=1.57101e+14 6.87149e+13 4.1258e+13 3.25519e+13 2.98779e+13 2.9371e+13 1.6933e+13 1.53539e+13 1.38423e+13 7.21584e+12 6.33414e+12 4.96742e+12 4.73778e+12 4.0441e+12 4.03611e+12 3.79461e+12 3.66605e+12 3.51417e+12 3.00071e+12 2.9691e+12 2.96324e+12 2.91034e+12 2.7189e+12 2.7039e+12 2.53831e+12 2.32664e+12 2.09779e+12 2.03874e+12 1.6823e+12 1.57093e+12
threshold=3.5000000000000004 1.5000000000000002 1831.5000000000002 1.5000000000000002 1877.5000000000002 1.5000000000000002 1855.5000000000002 2.5000000000000004 2235.5000000000005 2542.5000000000005 2.5000000000000004 2.5000000000000004 2.5000000000000004 2.5000000000000004 2801.5000000000005 2384.5000000000005 1387.5000000000002 1295.5000000000002 4.5000000000000009 2.5000000000000004 4.5000000000000009 2471.5000000000005 4.5000000000000009 2408.5000000000005 1128.5000000000002 4.5000000000000009 1268.5000000000002 2.5000000000000004 18.18253091310245 1104.5000000000002
decision_type=2 2 2 2 2 2 2 2 2 2 2 2 2 2 2 2 2 2 2 2 2 2 2 2 2 2 2 2 2 2
left_child=3 2 16 12 13 6 26 14 17 18 -8 27 15 24 22 -1 28 -7 -4 -19 -11 -9 -6 -12 -3 -26 -5 -10 -2 -15
right_child=1 4 9 5 7 8 10 21 11 20 23 -13 -14 29 -16 -17 -18 19 -20 -21 -22 -23 -24 -25 25 -27 -28 -29 -30 -31
leaf_value=-5787.5425934302421 -974.63624442461969 -4703.7294149307982 9113.6100834686204 -4259.4967791813679 4304.5553266340075 -7043.8038398594263 2106.3315459086302 -164.85054963918833 -419.59322216535867 14306.744811208948 4687.5045835367846 -2530.5284171515941 -7676.3966872478959 -7213.0957441796563 11491.055604922272 -2590.2157049843181 5741.1821400982481 -2627.7674553776578 13599.420589568901 -5318.4874806614907 19803.41237209786 3354.238276985252 7985.2294557645209 9326.8858541393129 -1203.4065461026798 2639.0040582918173 -587.54800761154513 3028.273794363377 3649.5396062343398 -2813.2667572433588
leaf_weight=2983 438 252 702 558 999 1208 1265 1287 855 498 600 1655 2123 233 430 1347 917 2047 795 2054 483 1081 1008 659 795 781 1284 860 357 1569
leaf_count=2983 438 252 702 558 999 1208 1265 1287 855 498 600 1655 2123 233 430 1347 917 2047 795 2054 483 1081 1008 659 795 781 1284 860 357 1569
internal_value=0 4322.25 9556.03 -2836.84 1722.42 -1399.95 1945.08 4308.9 -3082.68 13680 4605.16 -576.398 -5741.55 -1701.28 7095 -4792.9 3586.83 -4673.6 11495.9 -3975.42 17013.1 1441.63 6153.15 7115.9 -44.303 700.732 -1699.9 1309.37 1101.88 -3382.17
internal_weight=0 12625 4190 19498 8435 13045 4366 4805 8679 2478 2524 3370 6453 3630 2437 4330 1712 5309 1497 4101 981 2368 2007 1259 1828 1576 1842 1715 795 1802
internal_count=32123 12625 4190 19498 8435 13045 4366 4805 8679 2478 2524 3370 6453 3630 2437 4330 1712 5309 1497 4101 981 2368 2007 1259 1828 1576 1842 1715 795 1802
is_linear=0
shrinkage=0.05


Tree=26
num_leaves=31
num_cat=0
split_feature=4 0 0 4 0 0 4 0 0 0 3 4 0 3 3 3 3 0 3 1 3 3 0 0 3 0 0 1 0 1
split_gain=8.3257e+13 4.82167e+13 3.68953e+13 1.59575e+13 9.21491e+12 8.85053e+12 6.63355e+12 5.66179e+12 3.84987e+12 2.37743e+12 2.13301e+12 2.00836e+12 1.90479e+12 1.7944e+12 1.60948e+12 1.31388e+12 1.26503e+12 1.25412e+12 1.19418e+12 1.12591e+12 1.11551e+12 1.00413e+12 9.17613e+11 8.82263e+11 8.50753e+11 8.31069e+11 8.19562e+11 7.92768e+11 7.82143e+11 6.8024e+11
threshold=1.5000000000000002 1894.5000000000002 2140.5000000000005 2.5000000000000004 2542.5000000000005 1412.5000000000002 2.5000000000000004 1379.5000000000002 2615.5000000000005 2837.5000000000005 20.118982280315652 2.5000000000000004 2851.5000000000005 18.64784348712692 18.295432879328825 15.664888736024942 18.64784348712692 1128.5000000000002 14.409015916521708 3.5000000000000004 18.64784348712692 13.331682039687843 1681.5000000000002 1715.5000000000002 11.029742385673988 2938.5000000000005 1789.5000000000002 3.5000000000000004 2463.5000000000005 3.5000000000000004
decision_type=2 2 2 2 2 2 2 2 2 2 2 2 2 2 2 2 2 2 2 2 2 2 2 2 2 2 2 2 2 2
left_child=1 7 5 8 13 11 15 19 14 28 22 17 21 27 -4 -7 25 -2 -14 -1 -8 -6 -9 -17 -24 -10 -12 -3 -5 -23
right_child=2 4 3 9 12 6 20 10 16 -11 26 -13 18 -15 -16 23 -18 -19 -20 -21 -22 29 24 -25 -26 -27 -28 -29 -30 -31
leaf_value=-3401.2681275559794 -6206.2841626239087 2905.8105164465615 225.16992366892464 -2857.7205174661176 5544.7674600892151 -2351.4857574432972 -4846.1446598331277 -636.54420370449679 2578.3308563608625 819.1469558477678 2455.1099360838139 -6537.940101290571 8059.6201286112864 6238.9807285984534 2731.753001499595 -1620.680238651094 5650.7763688212517 -3576.6953289731605 12140.590317525915 -1006.1146437688851 -3136.5612156449724 7443.7771459464921 -3474.6634792018581 305.81811023943993 2165.0478851031162 6112.3879762429096 6068.8555013931809 4901.4861941193258 -1405.2622121965405 9693.5269798255486
leaf_weight=1008 651 980 1463 1756 354 1530 2200 1086 1014 865 715 2147 263 1434 1139 1008 877 1494 563 956 1685 691 74 1448 694 199 201 1011 1963 654
leaf_count=1008 651 980 1463 1756 354 1530 2200 1086 1014 865 715 2147 263 1434 1139 1008 877 1494 563 956 1685 691 74 1448 694 199 201 1011 1963 654
internal_value=0 3583.84 -1818.96 556.198 6579.95 -3630.36 -2634.38 -181.865 2606.01 -1541.91 1274.14 -5456.86 8871.64 4890.45 1322.4 -1201.35 4204.08 -4374.77 10841.2 -2235.4 -4104.67 7914.1 298.884 -484.862 1621.64 3158.11 3248.08 3919.18 -2091.07 8537.71
internal_weight=0 10684 21439 9276 5950 12163 7871 4734 4692 4584 2770 4292 2525 3425 2602 3986 2090 2145 826 1964 3885 1699 1854 2456 768 1213 916 1991 3719 1345
internal_count=32123 10684 21439 9276 5950 12163 7871 4734 4692 4584 2770 4292 2525 3425 2602 3986 2090 2145 826 1964 3885 1699 1854 2456 768 1213 916 1991 3719 1345
is_linear=0
shrinkage=0.05


Tree=27
num_leaves=31
num_cat=0
split_feature=5 4 0 0 5 4 4 5 5 0 5 0 0 0 5 4 0 5 4 5 0 5 5 5 0 0 0 0 0 4
split_gain=1.42875e+14 7.24754e+13 4.32143e+13 3.15664e+13 1.38851e+13 1.34681e+13 1.07956e+13 8.55853e+12 6.79462e+12 6.32218e+12 5.67636e+12 4.9348e+12 4.5924e+12 4.3693e+12 4.07674e+12 3.96068e+12 3.81177e+12 3.38475e+12 3.1777e+12 2.60319e+12 2.59208e+12 2.58856e+12 2.5017e+12 2.30973e+12 2.29778e+12 2.29582e+12 2.23287e+12 1.66665e+12 1.5216e+12 1.38292e+12
threshold=2.5000000000000004 1.5000000000000002 1894.5000000000002 2164.5000000000005 4.5000000000000009 2.5000000000000004 1.5000000000000002 4.5000000000000009 4.5000000000000009 2312.5000000000005 4.5000000000000009 2463.5000000000005 1387.5000000000002 2709.5000000000005 4.5000000000000009 2.5000000000000004 2652.5000000000005 1.5000000000000002 2.5000000000000004 3.5000000000000004 1322.5000000000002 1.5000000000000002 1.5000000000000002 1.5000000000000002 1355.5000000000002 1313.5000000000002 2629.5000000000005 1295.5000000000002 1583.5000000000002 2.5000000000000004
decision_type=2 2 2 2 2 2 2 2 2 2 2 2 2 2 2 2 2 2 2 2 2 2 2 2 2 2 2 2 2 2
left_child=6 2 10 7 13 8 9 12 26 22 20 23 -3 19 -7 25 -6 -11 -14 -4 -2 -13 -1 -8 -12 -9 -5 -24 -17 -23
right_child=1 3 4 5 16 14 11 15 -10 17 24 21 18 -15 -16 28 -18 -19 -20 -21 -22 29 27 -25 -26 -27 -28 -29 -30 -31
leaf_value=-4942.152486965736 -1606.3940360942154 -4951.2978431044767 5375.2356303982206 2653.1961343446133 13269.553085014952 -408.81712673117863 -6769.1280335822148 -809.46666980516989 9534.5635131974032 -1817.0749877919407 2648.378732784935 -4789.2983704916869 -159.40342083357154 12129.24413943137 3752.8849181182895 -2962.3871312653841 19393.485723361398 2927.2897148212423 -3260.1928058068734 9261.1673480512454 2262.3477042701993 251.52838906513207 -5189.8998423585554 -4860.2825745975415 7750.8688995056718 4126.4206840049319 6165.8540601598161 -1047.6789493292249 572.27595854472338 -3201.6724243484737
leaf_weight=1386 661 1626 900 1028 826 1814 3166 318 884 742 368 1159 1657 620 871 603 367 762 1648 827 1255 589 311 3173 551 909 808 1108 615 571
leaf_count=1386 661 1626 900 1028 826 1814 3166 318 884 742 368 1159 1657 620 871 603 367 762 1648 827 1255 589 311 3173 551 909 808 1108 615 571
internal_value=0 2722.61 7077.28 550.553 10761.3 3453.32 -4073.87 -1576.55 5933.11 -2028.87 2477.16 -5091.65 -2775.85 8528.69 941.217 842.183 15153.4 586.652 -1705.58 7236.07 927.672 -3118.07 -3431.27 -5813.65 5707.65 2847.19 4199.07 -1955.52 -1177.64 -1448.28
internal_weight=0 19156 6375 12781 3540 5405 12967 7376 2720 4309 2835 8658 4931 2347 2685 2445 1193 1504 3305 1727 1916 2319 2805 6339 919 1227 1836 1419 1218 1160
internal_count=32123 19156 6375 12781 3540 5405 12967 7376 2720 4309 2835 8658 4931 2347 2685 2445 1193 1504 3305 1727 1916 2319 2805 6339 919 1227 1836 1419 1218 1160
is_linear=0
shrinkage=0.05


Tree=28
num_leaves=31
num_cat=0
split_feature=5 4 0 5 0 0 4 4 4 0 5 4 4 0 0 0 5 4 0 0 4 0 5 0 5 5 2 0 0 5
split_gain=1.29479e+14 5.19419e+13 3.12707e+13 2.6179e+13 2.30645e+13 2.17793e+13 1.28063e+13 1.17181e+13 9.4663e+12 5.88823e+12 3.64621e+12 3.34398e+12 3.32465e+12 3.28043e+12 3.22749e+12 3.20592e+12 2.97686e+12 2.92952e+12 2.80107e+12 2.76894e+12 2.39491e+12 2.30794e+12 2.0816e+12 1.89163e+12 1.66422e+12 1.61213e+12 1.60444e+12 1.58094e+12 1.45005e+12 1.44369e+12
threshold=3.5000000000000004 1.5000000000000002 1831.5000000000002 1.5000000000000002 1877.5000000000002 2304.5000000000005 1.5000000000000002 2.5000000000000004 1.5000000000000002 2289.5000000000005 2.5000000000000004 2.5000000000000004 2.5000000000000004 1599.5000000000002 2801.5000000000005 1233.5000000000002 4.5000000000000009 2.5000000000000004 1387.5000000000002 1747.5000000000002 2.5000000000000004 2471.5000000000005 4.5000000000000009 1616.5000000000002 4.5000000000000009 4.5000000000000009 2.5000000000000004 2877.5000000000005 2681.5000000000005 2.5000000000000004
decision_type=2 2 2 2 2 2 2 2 2 2 2 2 2 2 2 2 2 2 2 2 2 2 2 2 2 2 2 2 2 2
left_child=3 2 18 11 15 8 10 14 13 25 -7 19 28 -5 22 -3 -11 23 -2 -1 24 -9 -6 -10 -17 -4 -20 -18 -8 -15
right_child=1 4 9 5 7 6 12 21 17 16 -12 -13 -14 29 -16 20 27 -19 26 -21 -22 -23 -24 -25 -26 -27 -28 -29 -30 -31
leaf_value=-6022.3405285946947 1106.6273715708992 -3797.1215014385252 6980.877415543895 -2301.4732279386949 3911.4723665819752 2734.1423488937917 -165.24476399667947 1.7443613842280226 -4228.8233580478109 11795.430669243782 7574.9966697341652 -6804.6463312236201 -2072.6825709811906 -409.86099576300978 10302.306784000841 -710.80408445133389 15208.161284610738 -5124.7398978161436 3652.6367495914801 -3407.4484334807598 -1982.7635235082137 3135.5446290424643 7132.0141483670195 -1624.8120381969366 2786.1976763376497 11000.526494184469 8060.1435632596349 21184.249123263889 2903.7694196782559 2658.9313055546918
leaf_weight=1614 795 974 472 1277 999 774 852 1287 1308 728 782 2123 1511 764 430 687 614 2812 603 2716 1295 1081 1008 1494 674 529 314 135 702 769
leaf_count=1614 795 974 472 1277 999 774 852 1287 1308 728 782 2123 1511 764 430 687 614 2812 603 2716 1295 1081 1008 1494 674 529 314 135 702 769
internal_value=0 3925.08 8475.47 -2574.22 1664.72 -1285.64 1472.78 3937.23 -2798.78 12065.8 5167.01 -5179.13 -402.664 -429.679 6371.2 -1343.39 14072.3 -3984.6 3278.73 -4382.14 -443.563 1432.33 5528.96 -2840.39 1021 9105.15 5161.86 16285.3 1221.14 1129.54
internal_weight=0 12625 4190 19498 8435 13045 4621 4805 8424 2478 1556 6453 3065 2810 2437 3630 1477 5614 1712 4330 2656 2368 2007 2802 1361 1001 917 749 1554 1533
internal_count=32123 12625 4190 19498 8435 13045 4621 4805 8424 2478 1556 6453 3065 2810 2437 3630 1477 5614 1712 4330 2656 2368 2007 2802 1361 1001 917 749 1554 1533
is_linear=0
shrinkage=0.05


Tree=29
num_leaves=31
num_cat=0
split_feature=5 4 0 0 5 0 5 4 4 0 5 0 4 5 5 0 4 5 5 0 4 0 5 5 0 4 5 0 0 5
split_gain=1.17677e+14 5.88143e+13 3.53036e+13 2.61371e+13 1.1773e+13 9.12845e+12 8.88011e+12 8.47393e+12 7.87839e+12 4.97513e+12 4.37785e+12 4.31128e+12 4.26785e+12 4.05575e+12 3.86519e+12 3.56492e+12 3.23757e+12 3.11063e+12 2.94891e+12 2.54468e+12 1.86451e+12 1.80998e+12 1.76202e+12 1.59213e+12 1.59137e+12 1.47356e+12 1.4731e+12 1.44527e+12 1.3103e+12 1.23945e+12
threshold=2.5000000000000004 1.5000000000000002 1831.5000000000002 2344.5000000000005 4.5000000000000009 1755.5000000000002 4.5000000000000009 2.5000000000000004 1.5000000000000002 1520.5000000000002 3.5000000000000004 2542.5000000000005 2.5000000000000004 4.5000000000000009 1.5000000000000002 2652.5000000000005 2.5000000000000004 1.5000000000000002 4.5000000000000009 1395.5000000000002 2.5000000000000004 1322.5000000000002 3.5000000000000004 3.5000000000000004 1583.5000000000002 2.5000000000000004 4.5000000000000009 1355.5000000000002 2615.5000000000005 1.5000000000000002
decision_type=2 2 2 2 2 2 2 2 2 2 2 2 2 2 2 2 2 2 2 2 2 2 2 2 2 2 2 2 2 2
left_child=5 2 13 6 11 20 9 10 14 -3 -5 22 19 21 -7 -6 -11 -10 -9 -8 29 -2 -4 -13 -14 -19 -12 -15 -16 -1
right_child=1 3 4 7 15 8 12 18 17 16 26 23 24 27 28 -17 -18 25 -20 -21 -22 -23 -24 -25 -26 -27 -28 -29 -30 -31
leaf_value=-5700.7799704235367 -1497.1055063637232 -4090.1106764188985 4092.5170431199422 2773.5279117625864 11716.777737469889 -2385.4152993210059 -186.85262016689077 122.84988849127063 -4975.1021551633803 481.78549549597403 5977.2769958166618 8053.9215700819495 -2678.1203690018028 2460.6284382249996 347.48036455179653 17553.489072291402 -2543.9955938947373 -1424.0471676938469 4150.4848098238572 4489.9521102182252 -6810.2621551171242 1804.4415814594556 7561.4078791865604 12007.704790990132 713.53291463510914 -3767.2469425254403 9187.7785189332826 6652.5253924848703 3674.1575001550664 -3756.8544004356877
leaf_weight=1634 661 2179 765 733 911 1337 408 1391 2696 1743 741 521 603 368 945 367 1794 1371 675 1013 1593 1116 702 498 811 1314 690 466 431 1646
leaf_count=1634 661 2179 765 733 911 1337 408 1391 2696 1743 741 521 603 368 945 367 1794 1371 675 1013 1593 1116 702 498 811 1314 690 466 431 1646
internal_value=0 2470.99 6393.83 514.319 9492.81 -3697.11 -1075.98 3729.12 -2667.75 -2210.73 5915.77 7487.86 1211.94 1926.37 -470.833 13392.9 -1052.92 -3775.4 1438.75 3147.14 -5406.86 576.348 5752.48 9986.19 -732.837 -2570.78 7525.32 4802.86 1389.48 -4725.26
internal_weight=0 19156 6375 12781 3764 12967 8551 4230 8094 5716 2164 2486 2835 2611 2713 1278 3537 5381 2066 1421 4873 1777 1467 1019 1414 2685 1431 834 1376 3280
internal_count=32123 19156 6375 12781 3764 12967 8551 4230 8094 5716 2164 2486 2835 2611 2713 1278 3537 5381 2066 1421 4873 1777 1467 1019 1414 2685 1431 834 1376 3280
is_linear=0
shrinkage=0.05


Tree=30
num_leaves=31
num_cat=0
split_feature=5 0 4 4 4 5 4 0 4 0 5 0 5 0 5 0 5 5 5 0 5 0 0 5 5 0 0 5 0 5
split_gain=1.08431e+14 5.55074e+13 3.21232e+13 2.32033e+13 1.01602e+13 9.20515e+12 9.04529e+12 8.18436e+12 7.14993e+12 4.8282e+12 4.52385e+12 4.49452e+12 4.43268e+12 4.0167e+12 2.95682e+12 2.74351e+12 2.73065e+12 2.68067e+12 2.65412e+12 2.65155e+12 2.42019e+12 1.94261e+12 1.74942e+12 1.68246e+12 1.63286e+12 1.4618e+12 1.27721e+12 1.35287e+12 1.26368e+12 1.21492e+12
threshold=2.5000000000000004 2296.5000000000005 1.5000000000000002 1.5000000000000002 2.5000000000000004 3.5000000000000004 1.5000000000000002 1599.5000000000002 2.5000000000000004 2352.5000000000005 4.5000000000000009 1631.5000000000002 3.5000000000000004 1789.5000000000002 4.5000000000000009 1462.5000000000002 4.5000000000000009 4.5000000000000009 1.5000000000000002 2739.5000000000005 1.5000000000000002 2801.5000000000005 1403.5000000000002 4.5000000000000009 1.5000000000000002 1119.5000000000002 1128.5000000000002 4.5000000000000009 1173.5000000000002 4.5000000000000009
decision_type=2 2 2 2 2 2 2 2 2 2 2 2 2 2 2 2 2 2 2 2 2 2 2 2 2 2 2 2 2 2
left_child=6 3 5 7 12 -3 9 17 11 22 -9 26 -4 -8 -6 -10 -13 25 -15 29 -11 -14 -1 -17 -24 -2 -5 -28 -19 -7
right_child=1 2 4 8 14 19 13 10 15 20 -12 16 21 18 -16 23 -18 28 -20 -21 -22 -23 24 -25 -26 -27 27 -29 -30 -31
leaf_value=-4730.0845040746699 -3772.109556339989 6479.9119520360773 2871.3795798324609 -3964.0076120876474 -82.917399757521409 9764.0496061024769 -5787.8516068202698 3883.3606142916747 -4446.0520764832163 -1361.8989484649571 8648.457139914377 602.54232085790397 6347.0384798964606 -4704.7208157562545 3796.9754964836366 -2601.1044527171075 4365.8961931150689 67.323188548368577 -2449.2950181848864 15983.939962371998 2780.1817814564938 10296.905289797152 -3463.4494321707989 76.251830022424357 -608.18981986069468 543.99450636462359 -1790.3017830871825 1331.8686677075038 5130.4634108183636 13313.455132901741
leaf_weight=852 242 792 791 393 1513 470 3444 1460 1399 694 756 1404 1076 2634 727 1757 734 170 2584 531 717 438 994 881 1009 1036 1072 513 448 495
leaf_count=852 242 792 791 393 1513 470 3444 1460 1399 694 756 1404 1076 2634 727 1757 734 170 2584 531 717 438 994 881 1009 1036 1072 513 448 495
internal_value=0 2395.37 6006.8 383.392 3574.4 10838.6 -3534.4 3445.66 -1161.08 -1649.82 5509 305.327 5904.87 -4462.55 1176.32 -2656.18 1894.55 1034.08 -3587.81 13146.2 742.9 7489.73 -2832.35 -1706.96 -2025.13 -273.296 -1412.44 -779.782 3737.69 11584.7
internal_weight=0 19098 6833 12265 4545 2288 12928 4112 8153 4266 2216 4116 2305 8662 2240 4037 2138 1896 5218 1496 1411 1514 2855 2638 2003 1278 1978 1585 618 965
internal_count=32026 19098 6833 12265 4545 2288 12928 4112 8153 4266 2216 4116 2305 8662 2240 4037 2138 1896 5218 1496 1411 1514 2855 2638 2003 1278 1978 1585 618 965
is_linear=0
shrinkage=0.05


Tree=31
num_leaves=31
num_cat=0
split_feature=0 4 4 4 0 0 4 0 3 0 0 0 3 1 3 0 3 3 1 1 1 3 3 3 3 1 2 1 0 0
split_gain=5.26516e+13 4.16791e+13 1.32434e+13 1.18155e+13 8.40681e+12 5.71371e+12 3.6862e+12 3.23707e+12 2.86505e+12 2.73929e+12 2.0351e+12 1.89404e+12 1.77167e+12 1.35072e+12 1.27563e+12 1.20976e+12 1.15252e+12 1.00012e+12 9.7653e+11 9.49849e+11 9.3101e+11 8.55138e+11 7.33457e+11 7.0009e+11 6.70922e+11 6.69729e+11 6.55201e+11 6.0713e+11 5.67939e+11 5.63877e+11
threshold=1822.5000000000002 1.5000000000000002 2.5000000000000004 1.5000000000000002 2675.5000000000005 2629.5000000000005 2.5000000000000004 1173.5000000000002 21.830674439749004 2579.5000000000005 2344.5000000000005 1128.5000000000002 18.64784348712692 3.5000000000000004 15.275565205641737 1276.5000000000002 20.057748168493401 18.409117351641029 3.5000000000000004 2.5000000000000004 3.5000000000000004 21.474168663404217 17.945492594309481 17.256316984687647 20.290114196169995 3.5000000000000004 1.5000000000000002 4.5000000000000009 2434.5000000000005 2816.5000000000005
decision_type=2 2 2 2 2 2 2 2 2 2 2 2 2 2 2 2 2 2 2 2 2 2 2 2 2 2 2 2 2 2
left_child=3 4 5 7 8 12 11 -1 10 21 19 -5 27 16 -6 -8 -9 -7 -16 -2 -12 25 -13 -22 -11 -4 -15 -3 -14 -26
right_child=1 2 9 6 14 17 15 13 -10 24 20 22 28 26 18 -17 -18 -19 -20 -21 23 -23 -24 -25 29 -27 -28 -29 -30 -31
leaf_value=-3034.6016874591464 433.72497673106784 -687.48702077384769 -3548.2038098275707 -4946.4768822493897 6082.4021873752936 2840.7481986015932 -5755.8880392764722 -1560.8389700103107 6288.3882942223454 -775.11686684051119 3398.8644504487088 -2724.6385345049457 1287.8785358865325 36.604685774529557 7513.768371171318 -3969.5355267160835 1176.6929490073142 5089.3157896196526 10450.109523425897 2857.7573007374167 4715.769770804397 -1108.1801848207203 -1324.7285361210984 7897.9831929021502 -169.5152906059601 -2073.2426306744305 2080.5268186271455 1089.5086917906863 3316.2966602663241 2706.9396602142838
leaf_weight=871 529 1904 1489 677 602 1116 1433 1118 964 1540 699 2012 1355 603 587 2799 586 888 547 1712 444 1008 1749 283 386 1593 1121 643 463 305
leaf_count=871 529 1904 1489 677 602 1116 1433 1118 964 1540 699 2012 1355 603 587 2799 586 888 547 1712 444 1008 1749 283 386 1593 1121 643 463 305
internal_value=0 1674.04 17.7458 -2455.92 4975.19 1626.89 -3518.64 -312.694 3862.81 -1603.62 3225.16 -2511.87 612.165 378.899 7942.63 -4574.41 -619.411 3837.12 8930.15 2285.55 4701.78 -2372.37 -2073.63 5954.51 -194.306 -2785.84 1365.63 -238.878 1804.47 1100.12
internal_weight=0 19057 12690 12969 6367 6369 8670 4299 4631 6321 3667 4438 4365 3428 1736 4232 1704 2004 1134 2241 1426 4090 3761 727 2231 3082 1724 2547 1818 691
internal_count=32026 19057 12690 12969 6367 6369 8670 4299 4631 6321 3667 4438 4365 3428 1736 4232 1704 2004 1134 2241 1426 4090 3761 727 2231 3082 1724 2547 1818 691
is_linear=0
shrinkage=0.05


Tree=32
num_leaves=31
num_cat=0
split_feature=5 0 4 5 4 0 4 4 0 4 4 0 0 5 0 4 3 5 0 4 0 0 5 5 0 4 0 4 0 5
split_gain=9.86711e+13 3.84036e+13 2.24118e+13 1.96141e+13 1.50748e+13 1.00924e+13 6.91951e+12 6.73371e+12 5.85774e+12 5.34656e+12 4.73309e+12 4.57475e+12 3.74341e+12 3.42331e+12 3.17491e+12 2.68608e+12 2.66921e+12 2.16663e+12 2.00258e+12 1.91784e+12 1.71307e+12 1.63534e+12 1.60824e+12 1.53384e+12 1.49569e+12 1.37076e+12 1.36175e+12 1.25932e+12 1.22702e+12 1.19686e+12
threshold=3.5000000000000004 2296.5000000000005 1.5000000000000002 2.5000000000000004 1.5000000000000002 2376.5000000000005 1.5000000000000002 2.5000000000000004 1591.5000000000002 1.5000000000000002 2.5000000000000004 1814.5000000000002 1755.5000000000002 1.5000000000000002 2463.5000000000005 2.5000000000000004 16.538275380386825 4.5000000000000009 1814.5000000000002 2.5000000000000004 2864.5000000000005 1286.5000000000002 1.5000000000000002 4.5000000000000009 1430.5000000000002 1.5000000000000002 1146.5000000000002 2.5000000000000004 2793.5000000000005 4.5000000000000009
decision_type=2 2 2 2 2 2 2 2 2 2 2 2 2 2 2 2 2 2 2 2 2 2 2 2 2 2 2 2 2 2
left_child=3 4 16 6 8 9 12 20 26 18 25 19 -1 -14 24 -13 -3 -18 -5 -6 -4 -11 -16 -10 -8 -7 -2 -23 -15 -9
right_child=1 2 7 5 11 10 14 29 23 21 -12 15 13 28 22 -17 17 -19 -20 -21 -22 27 -24 -25 -26 -27 -28 -29 -30 -31
leaf_value=-3650.4789165377279 -979.04634017193916 9733.5621324167241 6168.0217854409384 -410.00603393068951 -86.596674719568242 6106.9782083738492 -5937.4761920220108 786.84412233136038 4914.0138467185525 -4900.1438839656321 -518.98053486443666 3497.9311366341008 -2383.4465588500857 517.55928400797131 -3897.706705015908 -87.950067271534593 11475.647911164908 16509.637247152263 3304.5733953156482 -2492.8160453903197 10408.857151815055 -835.14293387147029 -1263.6836616559012 8154.5862997408449 -4251.5209597231396 2981.1852517472453 2873.5281292126633 -3161.088432062666 4571.841548601501 3660.8713558611548
leaf_weight=1568 305 641 1218 911 1679 697 1862 722 702 607 692 1050 1331 1144 1162 1039 426 429 603 1634 296 1176 1156 761 4482 706 925 1152 223 727
leaf_count=1568 305 641 1218 911 1679 697 1862 722 702 607 692 1050 1331 1144 1162 1039 426 429 603 1634 296 1176 1156 761 4482 706 925 1152 223 727
internal_value=0 3457.96 7184.05 -2226.91 1405.49 3.54508 -3355.94 4665.28 4461.45 -1343.89 2864.99 -117.958 -1707.62 -578.487 -4167.73 1714.43 12172.8 14001.5 1069.45 -1273.36 6997.14 -2588.79 -2584.1 6599.64 -4746.36 4534.06 1918.21 -1986.13 1178.94 2228.82
internal_weight=0 12554 4459 19472 8095 6544 12928 2963 2693 4449 2095 5402 4266 2698 8662 2089 1496 855 1514 3313 1514 2935 2318 1463 6344 1403 1230 2328 1367 1449
internal_count=32026 12554 4459 19472 8095 6544 12928 2963 2693 4449 2095 5402 4266 2698 8662 2089 1496 855 1514 3313 1514 2935 2318 1463 6344 1403 1230 2328 1367 1449
is_linear=0
shrinkage=0.05


Tree=33
num_leaves=31
num_cat=0
split_feature=5 0 4 5 4 0 4 4 0 0 4 4 0 5 4 5 0 0 4 0 0 4 5 4 5 5 5 5 5 5
split_gain=8.90507e+13 3.46592e+13 2.02266e+13 1.77017e+13 1.3605e+13 9.10839e+12 6.25976e+12 6.07717e+12 5.48722e+12 5.29429e+12 4.82527e+12 4.27161e+12 4.12871e+12 2.7514e+12 2.42418e+12 2.26658e+12 2.24762e+12 1.81355e+12 1.73085e+12 1.72529e+12 1.54605e+12 1.49615e+12 1.38519e+12 1.23711e+12 1.19483e+12 1.19028e+12 1.10226e+12 1.09175e+12 1.08017e+12 1.00323e+12
threshold=3.5000000000000004 2296.5000000000005 1.5000000000000002 2.5000000000000004 1.5000000000000002 2376.5000000000005 2.5000000000000004 2.5000000000000004 2518.5000000000005 1575.5000000000002 1.5000000000000002 2.5000000000000004 1814.5000000000002 1.5000000000000002 2.5000000000000004 1.5000000000000002 2739.5000000000005 1706.5000000000002 2.5000000000000004 1631.5000000000002 2864.5000000000005 2.5000000000000004 4.5000000000000009 1.5000000000000002 4.5000000000000009 4.5000000000000009 4.5000000000000009 1.5000000000000002 4.5000000000000009 4.5000000000000009
decision_type=2 2 2 2 2 2 2 2 2 2 2 2 2 2 2 2 2 2 2 2 2 2 2 2 2 2 2 2 2 2
left_child=3 4 16 6 9 10 8 20 13 24 17 23 18 -1 -14 -10 29 -5 -6 -15 25 -12 -11 -7 -2 -4 -18 -8 -9 -3
right_child=1 2 7 5 12 11 27 28 15 22 21 -13 14 19 -16 -17 26 -19 -20 -21 -22 -23 -24 -25 -26 -27 -28 -29 -30 -31
leaf_value=-4159.4980715527445 160.10746459448038 8472.0227574384971 4337.1153223403935 -660.5053403602825 -82.266856988858024 5801.6292824349757 -5549.1218847013479 747.50192123053807 -1842.6992770780341 4632.5763190253665 -1333.9100849856502 -493.03150380966986 3323.0345446908136 -3448.3383676179274 -83.552561019221912 1440.3082717345139 11877.179762227453 2802.2371320237894 -2368.1752559281331 -1131.8406145540607 9888.4142539359436 -3591.7082373394187 7668.5519589901587 2832.1260147802554 3331.4667895621033 7464.2849175374395 16433.50511255976 -3951.2394001164685 3477.8278230438864 11697.417644412879
leaf_weight=3254 595 470 625 781 1679 697 2146 722 1046 724 1472 692 1050 1391 1039 1057 263 733 1634 1904 296 1463 781 706 593 593 268 2130 727 495
leaf_count=3254 595 470 625 781 1679 697 2146 722 1046 724 1472 692 1050 1391 1039 1057 263 733 1634 1904 296 1463 781 706 593 593 268 2130 727 495
internal_value=0 3285.06 6824.85 -2115.56 1335.22 3.36784 -3188.14 4432.02 -2414.67 4238.38 -1276.69 2721.74 -112.06 -3128.21 1628.71 -192.609 11564.1 1015.97 -1209.7 -2109.76 6647.28 -2459.35 6208.06 4307.35 1743.12 5859.62 14176.8 -4753.17 2117.38 10126.5
internal_weight=0 12554 4459 19472 8095 6544 12928 2963 8652 2693 4449 2095 5402 6549 2089 2103 1496 1514 3313 3295 1514 2935 1505 1403 1188 1218 531 4276 1449 965
internal_count=32026 12554 4459 19472 8095 6544 12928 2963 8652 2693 4449 2095 5402 6549 2089 2103 1496 1514 3313 3295 1514 2935 1505 1403 1188 1218 531 4276 1449 965
is_linear=0
shrinkage=0.05


Tree=34
num_leaves=31
num_cat=0
split_feature=5 0 5 0 0 0 5 5 3 0 0 5 0 0 0 5 0 3 3 3 0 0 3 3 3 5 3 3 0 0
split_gain=8.03683e+13 3.1291e+13 1.59758e+13 8.29102e+12 7.0034e+12 5.6846e+12 4.85831e+12 4.60594e+12 3.39552e+12 2.36086e+12 2.34256e+12 2.22455e+12 2.11635e+12 1.97349e+12 1.6927e+12 1.65655e+12 1.51707e+12 1.2094e+12 1.18795e+12 1.07426e+12 1.07296e+12 1.04293e+12 9.55502e+11 9.25013e+11 8.86031e+11 8.44149e+11 8.36893e+11 7.8984e+11 7.72398e+11 7.43064e+11
threshold=3.5000000000000004 2235.5000000000005 2.5000000000000004 2219.5000000000005 1575.5000000000002 1755.5000000000002 4.5000000000000009 1.5000000000000002 14.518505576653997 1155.5000000000002 2622.5000000000005 4.5000000000000009 1137.5000000000002 2771.5000000000005 2716.5000000000005 4.5000000000000009 2681.5000000000005 19.546283093041858 13.998359627917663 19.879005746052034 2669.5000000000005 1208.5000000000002 12.887120811514118 22.364393653328964 18.582046090612724 1.5000000000000002 17.945492594309481 18.295432879328825 1706.5000000000002 2747.5000000000005
decision_type=2 2 2 2 2 2 2 2 2 2 2 2 2 2 2 2 2 2 2 2 2 2 2 2 2 2 2 2 2 2
left_child=2 4 5 9 12 21 10 29 20 -4 -3 18 -2 -10 27 23 24 -13 -6 -12 -8 -1 -11 -14 -5 -23 -17 -9 -24 -7
right_child=1 6 3 16 11 7 8 14 13 22 19 17 15 -15 -16 26 -18 -19 -20 -21 -22 25 28 -25 -26 -27 -28 -29 -30 -31
